{"learner":{"attributes":{"best_iteration":"349","best_ntree_limit":"350","scikit_learn":"{\"use_label_encoder\": false, \"n_estimators\": 350, \"objective\": \"multi:softprob\", \"max_depth\": null, \"max_leaves\": null, \"max_bin\": null, \"grow_policy\": null, \"learning_rate\": null, \"verbosity\": null, \"booster\": null, \"tree_method\": null, \"gamma\": null, \"min_child_weight\": null, \"max_delta_step\": null, \"subsample\": null, \"sampling_method\": null, \"colsample_bytree\": null, \"colsample_bylevel\": null, \"colsample_bynode\": null, \"reg_alpha\": null, \"reg_lambda\": null, \"scale_pos_weight\": null, \"base_score\": null, \"missing\": NaN, \"num_parallel_tree\": null, \"random_state\": null, \"n_jobs\": null, \"monotone_constraints\": null, \"interaction_constraints\": null, \"importance_type\": null, \"gpu_id\": null, \"validate_parameters\": null, \"predictor\": null, \"enable_categorical\": false, \"max_cat_to_onehot\": null, \"eval_metric\": null, \"early_stopping_rounds\": null, \"callbacks\": null, \"classes_\": [0, 1, 2], \"n_classes_\": 3, \"_estimator_type\": \"classifier\"}"},"feature_names":[],"feature_types":[],"gradient_booster":{"model":{"gbtree_model_param":{"num_parallel_tree":"1","num_trees":"1050","size_leaf_vector":"0"},"tree_info":[0,1,2,0,1,2,0,1,2,0,1,2,0,1,2,0,1,2,0,1,2,0,1,2,0,1,2,0,1,2,0,1,2,0,1,2,0,1,2,0,1,2,0,1,2,0,1,2,0,1,2,0,1,2,0,1,2,0,1,2,0,1,2,0,1,2,0,1,2,0,1,2,0,1,2,0,1,2,0,1,2,0,1,2,0,1,2,0,1,2,0,1,2,0,1,2,0,1,2,0,1,2,0,1,2,0,1,2,0,1,2,0,1,2,0,1,2,0,1,2,0,1,2,0,1,2,0,1,2,0,1,2,0,1,2,0,1,2,0,1,2,0,1,2,0,1,2,0,1,2,0,1,2,0,1,2,0,1,2,0,1,2,0,1,2,0,1,2,0,1,2,0,1,2,0,1,2,0,1,2,0,1,2,0,1,2,0,1,2,0,1,2,0,1,2,0,1,2,0,1,2,0,1,2,0,1,2,0,1,2,0,1,2,0,1,2,0,1,2,0,1,2,0,1,2,0,1,2,0,1,2,0,1,2,0,1,2,0,1,2,0,1,2,0,1,2,0,1,2,0,1,2,0,1,2,0,1,2,0,1,2,0,1,2,0,1,2,0,1,2,0,1,2,0,1,2,0,1,2,0,1,2,0,1,2,0,1,2,0,1,2,0,1,2,0,1,2,0,1,2,0,1,2,0,1,2,0,1,2,0,1,2,0,1,2,0,1,2,0,1,2,0,1,2,0,1,2,0,1,2,0,1,2,0,1,2,0,1,2,0,1,2,0,1,2,0,1,2,0,1,2,0,1,2,0,1,2,0,1,2,0,1,2,0,1,2,0,1,2,0,1,2,0,1,2,0,1,2,0,1,2,0,1,2,0,1,2,0,1,2,0,1,2,0,1,2,0,1,2,0,1,2,0,1,2,0,1,2,0,1,2,0,1,2,0,1,2,0,1,2,0,1,2,0,1,2,0,1,2,0,1,2,0,1,2,0,1,2,0,1,2,0,1,2,0,1,2,0,1,2,0,1,2,0,1,2,0,1,2,0,1,2,0,1,2,0,1,2,0,1,2,0,1,2,0,1,2,0,1,2,0,1,2,0,1,2,0,1,2,0,1,2,0,1,2,0,1,2,0,1,2,0,1,2,0,1,2,0,1,2,0,1,2,0,1,2,0,1,2,0,1,2,0,1,2,0,1,2,0,1,2,0,1,2,0,1,2,0,1,2,0,1,2,0,1,2,0,1,2,0,1,2,0,1,2,0,1,2,0,1,2,0,1,2,0,1,2,0,1,2,0,1,2,0,1,2,0,1,2,0,1,2,0,1,2,0,1,2,0,1,2,0,1,2,0,1,2,0,1,2,0,1,2,0,1,2,0,1,2,0,1,2,0,1,2,0,1,2,0,1,2,0,1,2,0,1,2,0,1,2,0,1,2,0,1,2,0,1,2,0,1,2,0,1,2,0,1,2,0,1,2,0,1,2,0,1,2,0,1,2,0,1,2,0,1,2,0,1,2,0,1,2,0,1,2,0,1,2,0,1,2,0,1,2,0,1,2,0,1,2,0,1,2,0,1,2,0,1,2,0,1,2,0,1,2,0,1,2,0,1,2,0,1,2,0,1,2,0,1,2,0,1,2,0,1,2,0,1,2,0,1,2,0,1,2,0,1,2,0,1,2,0,1,2,0,1,2,0,1,2,0,1,2,0,1,2,0,1,2,0,1,2,0,1,2,0,1,2,0,1,2,0,1,2,0,1,2,0,1,2,0,1,2,0,1,2,0,1,2,0,1,2,0,1,2,0,1,2,0,1,2,0,1,2,0,1,2,0,1,2,0,1,2,0,1,2,0,1,2,0,1,2,0,1,2,0,1,2,0,1,2,0,1,2,0,1,2,0,1,2,0,1,2,0,1,2,0,1,2,0,1,2,0,1,2,0,1,2,0,1,2,0,1,2,0,1,2,0,1,2,0,1,2,0,1,2,0,1,2,0,1,2,0,1,2,0,1,2,0,1,2,0,1,2,0,1,2,0,1,2,0,1,2,0,1,2,0,1,2,0,1,2,0,1,2,0,1,2,0,1,2,0,1,2,0,1,2,0,1,2,0,1,2,0,1,2,0,1,2,0,1,2,0,1,2,0,1,2,0,1,2,0,1,2,0,1,2,0,1,2,0,1,2,0,1,2,0,1,2,0,1,2,0,1,2,0,1,2,0,1,2,0,1,2,0,1,2,0,1,2,0,1,2,0,1,2,0,1,2,0,1,2,0,1,2,0,1,2,0,1,2,0,1,2,0,1,2,0,1,2,0,1,2,0,1,2,0,1,2,0,1,2,0,1,2,0,1,2,0,1,2,0,1,2,0,1,2,0,1,2],"trees":[{"base_weights":[-4.3815337E-8,-5.653496E-1,1.3984963E0,-6.655291E-1,1.9999997E-1,4.285714E-1,-7.2597873E-1,9.6E-1,-5.172414E-1],"categories":[],"categories_nodes":[],"categories_segments":[],"categories_sizes":[],"default_left":[1,1,0,1,1,0,0,0,0],"id":0,"left_children":[1,3,-1,5,7,-1,-1,-1,-1],"loss_changes":[4.0586147E1,2.9359045E0,0E0,2.4642935E0,3.2220688E0,0E0,0E0,0E0,0E0],"parents":[2147483647,0,0,1,1,3,3,4,4],"right_children":[2,4,-1,6,8,-1,-1,-1,-1],"split_conditions":[3.878438E-1,5.407135E-1,4.195489E-1,-1.1074111E0,-5E-1,1.2857142E-1,-2.1779363E-1,2.8800002E-1,-1.5517244E-1],"split_indices":[0,2,0,3,4,0,0,0,0],"split_type":[0,0,0,0,0,0,0,0,0],"sum_hessian":[4.9333332E1,3.5555553E1,1.3777777E1,3.1555553E1,3.9999998E0,1.3333333E0,3.0222221E1,1.7777777E0,2.222222E0],"tree_param":{"num_deleted":"0","num_feature":"5","num_nodes":"9","size_leaf_vector":"0"}},{"base_weights":[-4.3815337E-8,-6.52174E-1,3.4883717E-1,-2.5544848E-8,-7.04698E-1,1.118644E0,-6.992482E-1,2.926829E-1,1.2827586E0,-4.2857146E-1,7.241379E-1,1.3884298E0,5.454545E-1,-2.5544848E-8,8.571428E-1],"categories":[],"categories_nodes":[],"categories_segments":[],"categories_sizes":[],"default_left":[1,1,1,0,0,1,0,1,1,0,0,0,1,0,0],"id":1,"left_children":[1,3,5,-1,-1,7,-1,9,11,-1,-1,-1,13,-1,-1],"loss_changes":[1.1678463E1,6.1278105E-1,2.7765966E1,0E0,0E0,2.2904186E0,0E0,1.7279828E0,4.9791908E-1,0E0,0E0,0E0,6.233767E-1,0E0,0E0],"parents":[2147483647,0,0,1,1,2,2,5,5,7,7,8,8,12,12],"right_children":[2,4,6,-1,-1,8,-1,10,12,-1,-1,-1,14,-1,-1],"split_conditions":[-3.1079936E-1,-1.1772885E0,3.878438E-1,-7.663455E-9,-2.1140942E-1,-8.947369E-1,-2.0977446E-1,-3.697413E-1,5.407135E-1,-1.2857145E-1,2.1724138E-1,4.1652894E-1,8.982745E-2,-7.663455E-9,2.5714284E-1],"split_indices":[0,0,0,0,0,1,0,3,2,0,0,0,0,0,0],"split_type":[0,0,0,0,0,0,0,0,0,0,0,0,0,0,0],"sum_hessian":[4.9333332E1,1.6888887E1,3.2444443E1,1.3333333E0,1.5555554E1,1.8666666E1,1.3777777E1,3.5555553E0,1.5111111E1,1.3333333E0,2.222222E0,1.2444444E1,2.6666665E0,1.3333333E0,1.3333333E0],"tree_param":{"num_deleted":"0","num_feature":"5","num_nodes":"15","size_leaf_vector":"0"}},{"base_weights":[-4.3815337E-8,1.3602484E0,-7.275748E-1,4.285714E-1,1.4093959E0],"categories":[],"categories_nodes":[],"categories_segments":[],"categories_sizes":[],"default_left":[1,1,0,0,0],"id":2,"left_children":[1,3,-1,-1,-1],"loss_changes":[5.0803696E1,2.1509552E-1,0E0,0E0,0E0],"parents":[2147483647,0,0,1,1],"right_children":[2,4,-1,-1,-1],"split_conditions":[-3.1079936E-1,-1.1772885E0,-2.1827246E-1,1.2857142E-1,4.228188E-1],"split_indices":[0,0,0,0,0],"split_type":[0,0,0,0,0],"sum_hessian":[4.9333332E1,1.6888887E1,3.2444443E1,1.3333333E0,1.5555554E1],"tree_param":{"num_deleted":"0","num_feature":"5","num_nodes":"5","size_leaf_vector":"0"}},{"base_weights":[1.5129016E-3,-4.8878968E-1,9.6817875E-1,-5.875746E-1,1.7021431E-1,3.5970917E-1,-6.4994645E-1,7.845047E-1,-4.7641975E-1],"categories":[],"categories_nodes":[],"categories_segments":[],"categories_sizes":[],"default_left":[1,1,0,1,1,0,0,0,0],"id":3,"left_children":[1,3,-1,5,7,-1,-1,-1,-1],"loss_changes":[2.322E1,2.2161999E0,0E0,1.9173222E0,2.3650062E0,0E0,0E0,0E0,0E0],"parents":[2147483647,0,0,1,1,3,3,4,4],"right_children":[2,4,-1,6,8,-1,-1,-1,-1],"split_conditions":[3.878438E-1,5.407135E-1,2.9045364E-1,-1.1074111E0,-5E-1,1.0791276E-1,-1.9498394E-1,2.3535143E-1,-1.4292593E-1],"split_indices":[0,2,0,3,4,0,0,0,0],"split_type":[0,0,0,0,0,0,0,0,0],"sum_hessian":[4.699313E1,3.1506882E1,1.548625E1,2.7493923E1,4.012958E0,1.4039536E0,2.608997E1,1.9486058E0,2.0643523E0],"tree_param":{"num_deleted":"0","num_feature":"5","num_nodes":"9","size_leaf_vector":"0"}},{"base_weights":[1.0530811E-3,-5.743821E-1,2.7225086E-1,-6.324641E-1,6.7268915E-2,7.9555744E-1,-6.220101E-1,2.0704822E-1,9.0639585E-1,-4.028576E-1,5.503514E-1,3.6752477E-1,9.85259E-1,6.178885E-1,-5.184519E-2],"categories":[],"categories_nodes":[],"categories_segments":[],"categories_sizes":[],"default_left":[1,1,1,0,0,1,0,1,1,0,0,1,0,0,0],"id":4,"left_children":[1,3,5,-1,-1,7,-1,9,11,-1,-1,13,-1,-1,-1],"loss_changes":[7.6657515E0,6.2898016E-1,1.611767E1,0E0,0E0,1.2146902E0,0E0,1.206518E0,3.9414787E-1,0E0,0E0,4.380312E-1,0E0,0E0,0E0],"parents":[2147483647,0,0,1,1,2,2,5,5,7,7,8,8,11,11],"right_children":[2,4,6,-1,-1,8,-1,10,12,-1,-1,14,-1,-1,-1],"split_conditions":[-3.1079936E-1,3.4974372E-1,3.878438E-1,-1.8973924E-1,2.0180676E-2,-8.947369E-1,-1.8660304E-1,-3.697413E-1,-5E-1,-1.2085728E-1,1.6510542E-1,-1.19503215E-2,2.955777E-1,1.8536656E-1,-1.5553557E-2],"split_indices":[0,2,0,0,0,1,0,3,4,0,0,2,0,0,0],"split_type":[0,0,0,0,0,0,0,0,0,0,0,0,0,0,0],"sum_hessian":[4.7119514E1,1.4735456E1,3.2384056E1,1.35254545E1,1.2100017E0,2.0498848E1,1.1885208E1,3.7033749E0,1.6795473E1,1.2713118E0,2.432063E0,2.8668184E0,1.3928656E1,1.4987136E0,1.3681047E0],"tree_param":{"num_deleted":"0","num_feature":"5","num_nodes":"15","size_leaf_vector":"0"}},{"base_weights":[-2.570384E-3,9.460998E-1,-6.525077E-1,9.8647696E-1,2.625078E-1],"categories":[],"categories_nodes":[],"categories_segments":[],"categories_sizes":[],"default_left":[1,1,0,0,0],"id":5,"left_children":[1,3,-1,-1,-1],"loss_changes":[3.0190895E1,2.9055405E-1,0E0,0E0,0E0],"parents":[2147483647,0,0,1,1],"right_children":[2,4,-1,-1,-1],"split_conditions":[-3.1079936E-1,3.4974372E-1,-1.9575232E-1,2.959431E-1,7.875234E-2],"split_indices":[0,2,0,0,0],"split_type":[0,0,0,0,0],"sum_hessian":[4.6964157E1,1.8908705E1,2.8055454E1,1.7435762E1,1.4729418E0],"tree_param":{"num_deleted":"0","num_feature":"5","num_nodes":"5","size_leaf_vector":"0"}},{"base_weights":[3.3048084E-3,-4.3210033E-1,7.7556384E-1,-5.329663E-1,1.6502832E-1,3.0636188E-1,-5.989783E-1,6.7066866E-1,-4.2713258E-1],"categories":[],"categories_nodes":[],"categories_segments":[],"categories_sizes":[],"default_left":[1,1,0,1,1,0,0,0,0],"id":6,"left_children":[1,3,-1,5,7,-1,-1,-1,-1],"loss_changes":[1.4764812E1,1.7794709E0,0E0,1.5277748E0,1.7302642E0,0E0,0E0,0E0,0E0],"parents":[2147483647,0,0,1,1,3,3,4,4],"right_children":[2,4,-1,6,8,-1,-1,-1,-1],"split_conditions":[3.878438E-1,5.407135E-1,2.3266916E-1,-1.1074111E0,-5E-1,9.190857E-2,-1.7969349E-1,2.012006E-1,-1.2813978E-1],"split_indices":[0,2,0,3,4,0,0,0,0],"split_type":[0,0,0,0,0,0,0,0,0],"sum_hessian":[4.1914146E1,2.70843E1,1.4829848E1,2.3262318E1,3.8219817E0,1.4306676E0,2.183165E1,1.9900874E0,1.8318943E0],"tree_param":{"num_deleted":"0","num_feature":"5","num_nodes":"9","size_leaf_vector":"0"}},{"base_weights":[1.7339604E-3,-5.1485413E-1,2.2785468E-1,-5.768143E-1,5.8441523E-2,6.319053E-1,-5.675523E-1,7.297206E-1,1.3442948E-1,-3.8650837E-2,7.9578215E-1,-4.5679608E-1,6.205513E-1],"categories":[],"categories_nodes":[],"categories_segments":[],"categories_sizes":[],"default_left":[1,1,1,0,0,1,0,1,1,0,0,0,0],"id":7,"left_children":[1,3,5,-1,-1,7,-1,9,11,-1,-1,-1,-1],"loss_changes":[5.1780267E0,5.1314044E-1,1.0265948E1,0E0,0E0,9.1967773E-1,0E0,9.065237E-1,1.6235286E0,0E0,0E0,0E0,0E0],"parents":[2147483647,0,0,1,1,2,2,5,5,7,7,8,8],"right_children":[2,4,6,-1,-1,8,-1,10,12,-1,-1,-1,-1],"split_conditions":[-3.1079936E-1,3.4974372E-1,3.878438E-1,-1.730443E-1,1.7532459E-2,5.407135E-1,-1.702657E-1,-1.0786376E0,-5E-1,-1.1595251E-2,2.3873465E-1,-1.3703883E-1,1.8616539E-1],"split_indices":[0,2,0,0,0,2,0,3,4,0,0,0,0],"split_type":[0,0,0,0,0,0,0,0,0,0,0,0,0],"sum_hessian":[4.2323856E1,1.2496913E1,2.9826944E1,1.1272478E1,1.2244354E0,1.9915718E1,9.911224E0,1.6253132E1,3.6625874E0,1.3196006E0,1.4933531E1,1.6798568E0,1.9827306E0],"tree_param":{"num_deleted":"0","num_feature":"5","num_nodes":"13","size_leaf_vector":"0"}},{"base_weights":[-5.078181E-3,7.543191E-1,-6.0157454E-1,7.8713495E-1,2.1662828E-1],"categories":[],"categories_nodes":[],"categories_segments":[],"categories_sizes":[],"default_left":[1,1,0,0,0],"id":8,"left_children":[1,3,-1,-1,-1],"loss_changes":[1.9805296E1,1.6893005E-1,0E0,0E0,0E0],"parents":[2147483647,0,0,1,1],"right_children":[2,4,-1,-1,-1],"split_conditions":[-3.1079936E-1,3.4974372E-1,-1.8047237E-1,2.3614049E-1,6.498849E-2],"split_indices":[0,2,0,0,0],"split_type":[0,0,0,0,0],"sum_hessian":[4.1720688E1,1.8237724E1,2.3482964E1,1.6751448E1,1.4862771E0],"tree_param":{"num_deleted":"0","num_feature":"5","num_nodes":"5","size_leaf_vector":"0"}},{"base_weights":[4.965313E-3,-4.1294277E-1,6.2949395E-1,-4.8554924E-1,3.9364863E-2,6.505365E-2,6.6713595E-1,2.54299E-1,-5.588351E-1,4.8734832E-1,-3.9016688E-1],"categories":[],"categories_nodes":[],"categories_segments":[],"categories_sizes":[],"default_left":[1,1,1,1,1,0,0,0,0,0,0],"id":9,"left_children":[1,3,5,7,9,-1,-1,-1,-1,-1,-1],"loss_changes":[9.875462E0,7.638006E-1,2.788229E-1,1.2056088E0,9.716836E-1,0E0,0E0,0E0,0E0,0E0,0E0],"parents":[2147483647,0,0,1,1,2,2,3,3,4,4],"right_children":[2,4,6,8,10,-1,-1,-1,-1,-1,-1],"split_conditions":[3.296492E-1,5.407135E-1,3.878438E-1,-1.1074111E0,-5E-1,1.9516096E-2,2.0014079E-1,7.6289706E-2,-1.6765054E-1,1.462045E-1,-1.1705007E-1],"split_indices":[0,2,0,3,4,0,0,0,0,0,0],"split_type":[0,0,0,0,0,0,0,0,0,0,0],"sum_hessian":[3.5841686E1,2.1675892E1,1.4165794E1,1.861434E1,3.061552E0,1.0562086E0,1.3109586E1,1.4550548E0,1.7159285E1,1.4327015E0,1.6288507E0],"tree_param":{"num_deleted":"0","num_feature":"5","num_nodes":"11","size_leaf_vector":"0"}},{"base_weights":[7.984481E-4,-4.6663043E-1,1.9768879E-1,9.594323E-2,-5.3859705E-1,5.328992E-1,-5.25851E-1,8.701063E-2,6.2631017E-1,-3.6174223E-1,3.50909E-1,2.3923302E-1,6.828618E-1,-7.858367E-2,4.3329927E-1],"categories":[],"categories_nodes":[],"categories_segments":[],"categories_sizes":[],"default_left":[1,1,1,0,0,1,0,1,1,0,0,1,0,0,0],"id":10,"left_children":[1,3,5,-1,-1,7,-1,9,11,-1,-1,13,-1,-1,-1],"loss_changes":[3.541472E0,5.1344013E-1,6.8464656E0,0E0,0E0,7.367935E-1,0E0,6.5416354E-1,1.7693996E-1,0E0,0E0,2.5121737E-1,0E0,0E0,0E0],"parents":[2147483647,0,0,1,1,2,2,5,5,7,7,8,8,11,11],"right_children":[2,4,6,-1,-1,8,-1,10,12,-1,-1,14,-1,-1,-1],"split_conditions":[-3.1079936E-1,-1.1772885E0,3.878438E-1,2.878297E-2,-1.6157912E-1,-8.947369E-1,-1.5775532E-1,-3.697413E-1,-5E-1,-1.08522676E-1,1.052727E-1,3.1618047E-1,2.0485856E-1,-2.3575103E-2,1.2998979E-1],"split_indices":[0,0,0,0,0,1,0,3,4,0,0,3,0,0,0],"split_type":[0,0,0,0,0,0,0,0,0,0,0,0,0,0,0],"sum_hessian":[3.647844E1,1.0405407E1,2.607303E1,1.1423473E0,9.26306E0,1.7998123E1,8.074907E0,3.4519677E0,1.4546155E1,1.1409855E0,2.3109822E0,2.5210109E0,1.2025145E1,1.181375E0,1.3396358E0],"tree_param":{"num_deleted":"0","num_feature":"5","num_nodes":"15","size_leaf_vector":"0"}},{"base_weights":[-5.8365837E-3,6.4398295E-1,-5.6358993E-1,1.3561504E-1,6.8186665E-1],"categories":[],"categories_nodes":[],"categories_segments":[],"categories_sizes":[],"default_left":[1,1,0,0,0],"id":11,"left_children":[1,3,-1,-1,-1],"loss_changes":[1.3580785E1,2.4092007E-1,0E0,0E0,0E0],"parents":[2147483647,0,0,1,1],"right_children":[2,4,-1,-1,-1],"split_conditions":[-3.1079936E-1,-1.1772885E0,-1.6907698E-1,4.0684514E-2,2.0456E-1],"split_indices":[0,0,0,0,0],"split_type":[0,0,0,0,0],"sum_hessian":[3.546915E1,1.6311071E1,1.9158077E1,1.4488237E0,1.4862247E1],"tree_param":{"num_deleted":"0","num_feature":"5","num_nodes":"5","size_leaf_vector":"0"}},{"base_weights":[7.171946E-3,-3.763256E-1,5.6261486E-1,-5.1989627E-1,-1.2183219E-1,7.715665E-2,5.975933E-1,3.3054596E-1,-2.831684E-1,2.705398E-1,-4.8400074E-1],"categories":[],"categories_nodes":[],"categories_segments":[],"categories_sizes":[],"default_left":[1,1,1,0,1,0,0,0,1,0,0],"id":12,"left_children":[1,3,5,-1,7,-1,-1,-1,9,-1,-1],"loss_changes":[6.83297E0,6.3041735E-1,1.762805E-1,0E0,6.887407E-1,0E0,0E0,0E0,8.5923404E-1,0E0,0E0],"parents":[2147483647,0,0,1,1,2,2,4,4,8,8],"right_children":[2,4,6,-1,8,-1,-1,-1,10,-1,-1],"split_conditions":[3.296492E-1,1.5345976E-1,3.878438E-1,-1.5596889E-1,-5E-1,2.3146994E-2,1.79278E-1,9.916379E-2,1.819705E-1,8.116194E-2,-1.4520022E-1],"split_indices":[0,2,0,0,4,0,0,0,2,0,0],"split_type":[0,0,0,0,0,0,0,0,0,0,0],"sum_hessian":[3.0084045E1,1.7987389E1,1.2096657E1,1.0833102E1,7.1542864E0,1.0284775E0,1.1068179E1,1.6050396E0,5.549247E0,1.3846316E0,4.164615E0],"tree_param":{"num_deleted":"0","num_feature":"5","num_nodes":"11","size_leaf_vector":"0"}},{"base_weights":[1.1919155E-3,-4.235478E-1,1.7578968E-1,-5.0511104E-1,9.925715E-2,4.61919E-1,-4.9144956E-1,5.027219E-2,5.566572E-1,-3.3803955E-1,2.8540316E-1,2.001701E-1,6.119126E-1,-7.6618284E-2,3.7584603E-1],"categories":[],"categories_nodes":[],"categories_segments":[],"categories_sizes":[],"default_left":[1,1,1,0,0,1,0,1,1,0,0,1,0,0,0],"id":13,"left_children":[1,3,5,-1,-1,7,-1,9,11,-1,-1,13,-1,-1,-1],"loss_changes":[2.4399507E0,4.5888627E-1,4.677676E0,0E0,0E0,6.284039E-1,0E0,4.843512E-1,1.4506674E-1,0E0,0E0,1.8969513E-1,0E0,0E0,0E0],"parents":[2147483647,0,0,1,1,2,2,5,5,7,7,8,8,11,11],"right_children":[2,4,6,-1,-1,8,-1,10,12,-1,-1,14,-1,-1,-1],"split_conditions":[-3.1079936E-1,3.4974372E-1,3.878438E-1,-1.5153332E-1,2.9777145E-2,-8.947369E-1,-1.4743488E-1,-3.697413E-1,-5E-1,-1.0141187E-1,8.5620955E-2,3.1618047E-1,1.8357378E-1,-2.2985486E-2,1.12753816E-1],"split_indices":[0,2,0,0,0,1,0,3,4,0,0,3,0,0,0],"split_type":[0,0,0,0,0,0,0,0,0,0,0,0,0,0,0],"sum_hessian":[3.0897785E1,8.585704E0,2.231208E1,7.4562864E0,1.1294174E0,1.583104E1,6.481041E0,3.2481503E0,1.258289E1,1.0599725E0,2.1881778E0,2.308962E0,1.0273928E1,1.1154176E0,1.1935444E0],"tree_param":{"num_deleted":"0","num_feature":"5","num_nodes":"15","size_leaf_vector":"0"}},{"base_weights":[-8.563081E-3,5.6989527E-1,-5.352718E-1,6.106899E-1,1.0619582E-1],"categories":[],"categories_nodes":[],"categories_segments":[],"categories_sizes":[],"default_left":[1,1,0,0,0],"id":14,"left_children":[1,3,-1,-1,-1],"loss_changes":[9.589827E0,2.1904182E-1,0E0,0E0,0E0],"parents":[2147483647,0,0,1,1],"right_children":[2,4,-1,-1,-1],"split_conditions":[-3.1079936E-1,3.4974372E-1,-1.6058156E-1,1.8320698E-1,3.185875E-2],"split_indices":[0,2,0,0,0],"split_type":[0,0,0,0,0],"sum_hessian":[2.9473959E1,1.4007841E1,1.5466118E1,1.2583771E1,1.4240695E0],"tree_param":{"num_deleted":"0","num_feature":"5","num_nodes":"5","size_leaf_vector":"0"}},{"base_weights":[8.940683E-3,-3.4323508E-1,5.1446635E-1,-4.94414E-1,-9.670534E-2,8.732858E-2,5.483236E-1,-4.0105397E-1,1.411225E-1,4.4334847E-1,-1.00654036E-1,2.2531629E-1,-3.4894025E-1],"categories":[],"categories_nodes":[],"categories_segments":[],"categories_sizes":[],"default_left":[1,1,1,0,1,0,0,0,1,0,1,0,0],"id":15,"left_children":[1,3,5,-1,7,-1,-1,-1,9,-1,11,-1,-1],"loss_changes":[4.8139977E0,5.4673374E-1,1.1257672E-1,0E0,5.855006E-1,0E0,0E0,0E0,3.9839822E-1,0E0,3.6227223E-1,0E0,0E0],"parents":[2147483647,0,0,1,1,2,2,4,4,8,8,10,10],"right_children":[2,4,6,-1,8,-1,-1,-1,10,-1,12,-1,-1],"split_conditions":[3.296492E-1,1.5345976E-1,3.878438E-1,-1.483242E-1,-8.879983E-2,2.6198575E-2,1.6449708E-1,-1.2031619E-1,-8.947369E-1,1.3300455E-1,8.982745E-2,6.7594886E-2,-1.0468208E-1],"split_indices":[0,2,0,0,0,0,0,0,1,0,0,0,0],"split_type":[0,0,0,0,0,0,0,0,0,0,0,0,0],"sum_hessian":[2.5047935E1,1.4952365E1,1.0095571E1,8.645319E0,6.3070455E0,1.0043366E0,9.091234E0,2.4655533E0,3.8414924E0,1.3367785E0,2.5047138E0,1.1229404E0,1.3817735E0],"tree_param":{"num_deleted":"0","num_feature":"5","num_nodes":"13","size_leaf_vector":"0"}},{"base_weights":[5.0608604E-4,1.3120349E-1,-4.6102563E-1,-3.8319373E-1,4.0478423E-1,1.2854189E-1,-4.788302E-1,5.026185E-1,-1.5822954E-3,-4.9835473E-2,5.686845E-1,-3.9853722E-1,3.8856897E-1],"categories":[],"categories_nodes":[],"categories_segments":[],"categories_sizes":[],"default_left":[1,1,0,1,1,0,0,1,1,0,0,0,0],"id":16,"left_children":[1,3,-1,5,7,-1,-1,9,11,-1,-1,-1,-1],"loss_changes":[1.6831133E0,3.214823E0,0E0,4.5612466E-1,5.8440256E-1,0E0,0E0,4.602728E-1,7.5038266E-1,0E0,0E0,0E0,0E0],"parents":[2147483647,0,0,1,1,3,3,4,4,7,7,8,8],"right_children":[2,4,-1,6,8,-1,-1,10,12,-1,-1,-1,-1],"split_conditions":[3.878438E-1,-3.1079936E-1,-1.3830769E-1,-1.1772885E0,5.407135E-1,3.8562566E-2,-1.4364906E-1,-1.0786376E0,-5E-1,-1.4950642E-2,1.7060536E-1,-1.1956117E-1,1.16570696E-1],"split_indices":[0,0,0,0,2,0,0,3,4,0,0,0,0],"split_type":[0,0,0,0,0,0,0,0,0,0,0,0,0],"sum_hessian":[2.589984E1,2.0741848E1,5.157993E0,7.062326E0,1.3679522E1,1.0578532E0,6.0044727E0,1.08342705E1,2.8452508E0,1.1834822E0,9.650788E0,1.3996743E0,1.4455765E0],"tree_param":{"num_deleted":"0","num_feature":"5","num_nodes":"13","size_leaf_vector":"0"}},{"base_weights":[-9.774991E-3,5.162126E-1,-5.121576E-1,4.5835767E-2,5.6677616E-1],"categories":[],"categories_nodes":[],"categories_segments":[],"categories_sizes":[],"default_left":[1,1,0,0,0],"id":17,"left_children":[1,3,-1,-1,-1],"loss_changes":[6.928037E0,2.788689E-1,0E0,0E0,0E0],"parents":[2147483647,0,0,1,1],"right_children":[2,4,-1,-1,-1],"split_conditions":[-3.1079936E-1,-1.1772885E0,-1.5364729E-1,1.3750731E-2,1.7003286E-1],"split_indices":[0,0,0,0,0],"split_type":[0,0,0,0,0],"sum_hessian":[2.4217524E1,1.1817371E1,1.2400152E1,1.3320682E0,1.0485303E1],"tree_param":{"num_deleted":"0","num_feature":"5","num_nodes":"5","size_leaf_vector":"0"}},{"base_weights":[9.35348E-3,-3.1614104E-1,4.7519195E-1,-4.7014433E-1,-8.356314E-2,1.3702704E-1,5.0820625E-1,-3.69032E-1,1.2702516E-1,4.0044877E-1,-9.882225E-2,1.9383058E-1,-3.2529584E-1],"categories":[],"categories_nodes":[],"categories_segments":[],"categories_sizes":[],"default_left":[1,1,1,0,1,0,0,0,1,0,1,0,0],"id":18,"left_children":[1,3,5,-1,7,-1,-1,-1,9,-1,11,-1,-1],"loss_changes":[3.434778E0,4.3896425E-1,3.4296513E-2,0E0,4.3975887E-1,0E0,0E0,0E0,3.177583E-1,0E0,2.7972487E-1,0E0,0E0],"parents":[2147483647,0,0,1,1,2,2,4,4,8,8,10,10],"right_children":[2,4,6,-1,8,-1,-1,-1,10,-1,12,-1,-1],"split_conditions":[3.296492E-1,1.5345976E-1,4.322437E-1,-1.410433E-1,-8.879983E-2,4.1108113E-2,1.5246189E-1,-1.107096E-1,-8.947369E-1,1.2013464E-1,8.982745E-2,5.8149178E-2,-9.7588755E-2],"split_indices":[0,2,0,0,0,0,0,0,1,0,0,0,0],"split_type":[0,0,0,0,0,0,0,0,0,0,0,0,0],"sum_hessian":[2.0661917E1,1.2352339E1,8.309578E0,6.8169756E0,5.535363E0,1.1972003E0,7.112378E0,2.03049E0,3.5048735E0,1.235732E0,2.2691414E0,1.052814E0,1.2163274E0],"tree_param":{"num_deleted":"0","num_feature":"5","num_nodes":"13","size_leaf_vector":"0"}},{"base_weights":[2.0817724E-5,1.19532935E-1,-4.3251976E-1,-3.4394178E-1,3.6154437E-1,1.5039381E-1,-4.5583087E-1,-4.616219E-3,4.6423075E-1,-1.3361338E-1,1.17351234E-1,1.2640339E-1,5.2386045E-1],"categories":[],"categories_nodes":[],"categories_segments":[],"categories_sizes":[],"default_left":[1,1,0,1,1,0,0,1,1,0,0,0,0],"id":19,"left_children":[1,3,-1,5,7,-1,-1,9,11,-1,-1,-1,-1],"loss_changes":[1.2157476E0,2.1912034E0,0E0,4.465263E-1,4.7563958E-1,0E0,0E0,7.4653104E-2,1.3210154E-1,0E0,0E0,0E0,0E0],"parents":[2147483647,0,0,1,1,3,3,4,4,7,7,8,8],"right_children":[2,4,-1,6,8,-1,-1,10,12,-1,-1,-1,-1],"split_conditions":[3.878438E-1,-3.1079936E-1,-1.2975593E-1,-5.6581837E-1,-8.947369E-1,4.5118146E-2,-1.3674927E-1,-4.743232E-2,-5E-1,-4.0084016E-2,3.520537E-2,3.792102E-2,1.5715814E-1],"split_indices":[0,0,0,3,1,0,0,3,4,0,0,0,0],"split_type":[0,0,0,0,0,0,0,0,0,0,0,0,0],"sum_hessian":[2.1518103E1,1.7426706E1,4.0913963E0,5.8336105E0,1.1593095E1,1.0131764E0,4.820434E0,2.748281E0,8.844814E0,1.2892451E0,1.4590359E0,1.7950284E0,7.049786E0],"tree_param":{"num_deleted":"0","num_feature":"5","num_nodes":"13","size_leaf_vector":"0"}},{"base_weights":[-9.819689E-3,4.7144353E-1,-4.908118E-1,2.9672125E-2,5.3247607E-1],"categories":[],"categories_nodes":[],"categories_segments":[],"categories_sizes":[],"default_left":[1,1,0,0,0],"id":20,"left_children":[1,3,-1,-1,-1],"loss_changes":[5.0188036E0,2.7668476E-1,0E0,0E0,0E0],"parents":[2147483647,0,0,1,1],"right_children":[2,4,-1,-1,-1],"split_conditions":[-3.1079936E-1,-5.6581837E-1,-1.4724354E-1,8.901638E-3,1.5974283E-1],"split_indices":[0,3,0,0,0],"split_type":[0,0,0,0,0],"sum_hessian":[1.9681416E1,9.847858E0,9.833557E0,1.375774E0,8.472084E0],"tree_param":{"num_deleted":"0","num_feature":"5","num_nodes":"5","size_leaf_vector":"0"}},{"base_weights":[1.1191038E-2,-2.873895E-1,4.394917E-1,-4.4999462E-1,-6.2382646E-2,1.2335115E-1,4.7614327E-1,-3.4011373E-1,1.3476983E-1,2.9439285E-1,-1.4840248E-1],"categories":[],"categories_nodes":[],"categories_segments":[],"categories_sizes":[],"default_left":[1,1,1,0,1,0,0,0,1,0,0],"id":21,"left_children":[1,3,5,-1,7,-1,-1,-1,9,-1,-1],"loss_changes":[2.4549408E0,3.866102E-1,3.2517076E-2,0E0,3.6974975E-1,0E0,0E0,0E0,2.32443E-1,0E0,0E0],"parents":[2147483647,0,0,1,1,2,2,4,4,8,8],"right_children":[2,4,6,-1,8,-1,-1,-1,10,-1,-1],"split_conditions":[3.296492E-1,-3.329993E-2,4.322437E-1,-1.349984E-1,1.24280065E-1,3.7005346E-2,1.42843E-1,-1.0203412E-1,1.3082397E-1,8.8317856E-2,-4.4520747E-2],"split_indices":[0,0,0,0,2,0,0,0,0,0,0],"split_type":[0,0,0,0,0,0,0,0,0,0,0],"sum_hessian":[1.7209219E1,1.0334056E1,6.875163E0,5.4184227E0,4.915633E0,1.1677936E0,5.7073693E0,1.7397275E0,3.175906E0,2.0056853E0,1.1702206E0],"tree_param":{"num_deleted":"0","num_feature":"5","num_nodes":"11","size_leaf_vector":"0"}},{"base_weights":[6.642821E-4,1.09607354E-1,-4.0519184E-1,-3.0452326E-1,3.2026577E-1,1.3489857E-1,-4.2719224E-1,4.2867416E-1,-5.395904E-2,-5.5685095E-2,5.024093E-1,-3.7098625E-1,3.1475654E-1],"categories":[],"categories_nodes":[],"categories_segments":[],"categories_sizes":[],"default_left":[1,1,0,1,1,0,0,1,1,0,0,0,0],"id":22,"left_children":[1,3,-1,5,7,-1,-1,9,11,-1,-1,-1,-1],"loss_changes":[8.8994724E-1,1.4814503E0,0E0,3.735668E-1,4.6947873E-1,0E0,0E0,3.3664382E-1,5.094707E-1,0E0,0E0,0E0,0E0],"parents":[2147483647,0,0,1,1,3,3,4,4,7,7,8,8],"right_children":[2,4,-1,6,8,-1,-1,10,12,-1,-1,-1,-1],"split_conditions":[3.878438E-1,-3.1079936E-1,-1.21557556E-1,-5.6581837E-1,5.407135E-1,4.0469572E-2,-1.2815768E-1,-1.0786376E0,-5E-1,-1.670553E-2,1.5072279E-1,-1.1129588E-1,9.442697E-2],"split_indices":[0,0,0,3,2,0,0,3,4,0,0,0,0],"split_type":[0,0,0,0,0,0,0,0,0,0,0,0,0],"sum_hessian":[1.8123177E1,1.486337E1,3.2598062E0,4.861207E0,1.0002163E1,1.0391375E0,3.8220696E0,7.6426735E0,2.3594892E0,1.0420884E0,6.600585E0,1.2653575E0,1.0941317E0],"tree_param":{"num_deleted":"0","num_feature":"5","num_nodes":"13","size_leaf_vector":"0"}},{"base_weights":[-1.2676684E-2,4.3151712E-1,-4.721274E-1,-1.30437E-2,5.002168E-1],"categories":[],"categories_nodes":[],"categories_segments":[],"categories_sizes":[],"default_left":[1,1,0,0,0],"id":23,"left_children":[1,3,-1,-1,-1],"loss_changes":[3.6889472E0,2.876643E-1,0E0,0E0,0E0],"parents":[2147483647,0,0,1,1],"right_children":[2,4,-1,-1,-1],"split_conditions":[-3.1079936E-1,-1.1772885E0,-1.4163823E-1,-3.91311E-3,1.5006503E-1],"split_indices":[0,0,0,0,0],"split_type":[0,0,0,0,0],"sum_hessian":[1.6077263E1,8.205266E0,7.871997E0,1.2067066E0,6.9985595E0],"tree_param":{"num_deleted":"0","num_feature":"5","num_nodes":"5","size_leaf_vector":"0"}},{"base_weights":[1.0895686E-2,-2.6412487E-1,4.089443E-1,-4.2641297E-1,-5.1853843E-2,1.12003855E-1,4.4739294E-1,2.4335206E-1,-1.9047445E-1,1.8962139E-1,-3.7956327E-1],"categories":[],"categories_nodes":[],"categories_segments":[],"categories_sizes":[],"default_left":[1,1,1,0,1,0,0,0,1,0,0],"id":24,"left_children":[1,3,5,-1,7,-1,-1,-1,9,-1,-1],"loss_changes":[1.7893925E0,3.1172878E-1,2.6021242E-2,0E0,2.647616E-1,0E0,0E0,0E0,3.7331676E-1,0E0,0E0],"parents":[2147483647,0,0,1,1,2,2,4,4,8,8],"right_children":[2,4,6,-1,8,-1,-1,-1,10,-1,-1],"split_conditions":[3.296492E-1,1.5345976E-1,4.322437E-1,-1.2792389E-1,-5E-1,3.3601157E-2,1.3421789E-1,7.300562E-2,1.8713585E-1,5.688642E-2,-1.1386899E-1],"split_indices":[0,2,0,0,4,0,0,0,2,0,0],"split_type":[0,0,0,0,0,0,0,0,0,0,0],"sum_hessian":[1.435906E1,8.690826E0,5.6682334E0,4.3535686E0,4.3372583E0,1.0983909E0,4.5698423E0,1.1444712E0,3.1927872E0,1.05974E0,2.133047E0],"tree_param":{"num_deleted":"0","num_feature":"5","num_nodes":"11","size_leaf_vector":"0"}},{"base_weights":[2.3706215E-3,1.0278117E-1,-3.7813044E-1,-2.6716986E-1,2.8923362E-1,1.4021106E-1,-4.0219447E-1,-3.955762E-2,4.0144163E-1,-1.1540777E-1,5.303559E-2,7.1313605E-2,4.688884E-1],"categories":[],"categories_nodes":[],"categories_segments":[],"categories_sizes":[],"default_left":[1,1,0,1,1,0,0,1,1,0,0,0,0],"id":25,"left_children":[1,3,-1,5,7,-1,-1,9,11,-1,-1,-1,-1],"loss_changes":[6.6016906E-1,1.0190183E0,0E0,3.3664492E-1,3.684981E-1,0E0,0E0,2.9593714E-2,1.27226E-1,0E0,0E0,0E0,0E0],"parents":[2147483647,0,0,1,1,3,3,4,4,7,7,8,8],"right_children":[2,4,-1,6,8,-1,-1,10,12,-1,-1,-1,-1],"split_conditions":[3.878438E-1,-3.1079936E-1,-1.13439135E-1,-5.6581837E-1,-8.947369E-1,4.206332E-2,-1.20658346E-1,-4.743232E-2,-5E-1,-3.4622334E-2,1.5910678E-2,2.1394081E-2,1.4066653E-1],"split_indices":[0,0,0,3,1,0,0,3,4,0,0,0,0],"split_type":[0,0,0,0,0,0,0,0,0,0,0,0,0],"sum_hessian":[1.5261823E1,1.26527605E1,2.609062E0,4.0949078E0,8.557853E0,1.0098108E0,3.0850968E0,2.3422036E0,6.2156496E0,1.1520643E0,1.1901393E0,1.403474E0,4.8121753E0],"tree_param":{"num_deleted":"0","num_feature":"5","num_nodes":"13","size_leaf_vector":"0"}},{"base_weights":[-1.4614981E-2,3.9426026E-1,-4.528927E-1,-3.223962E-2,4.7319058E-1],"categories":[],"categories_nodes":[],"categories_segments":[],"categories_sizes":[],"default_left":[1,1,0,0,0],"id":26,"left_children":[1,3,-1,-1,-1],"loss_changes":[2.7031577E0,2.7861166E-1,0E0,0E0,0E0],"parents":[2147483647,0,0,1,1],"right_children":[2,4,-1,-1,-1],"split_conditions":[-3.1079936E-1,-1.1772885E0,-1.3586782E-1,-9.671886E-3,1.4195718E-1],"split_indices":[0,0,0,0,0],"split_type":[0,0,0,0,0],"sum_hessian":[1.3088098E1,6.823135E0,6.264963E0,1.1579103E0,5.6652246E0],"tree_param":{"num_deleted":"0","num_feature":"5","num_nodes":"5","size_leaf_vector":"0"}},{"base_weights":[1.4493898E-2,-2.3626477E-1,3.781241E-1,-4.0755537E-1,-2.6217684E-2,1.00683495E-1,4.203594E-1,-2.8327787E-1,1.3394998E-1,2.9215324E-1,-4.425657E-2],"categories":[],"categories_nodes":[],"categories_segments":[],"categories_sizes":[],"default_left":[1,1,1,0,1,0,0,0,1,0,0],"id":27,"left_children":[1,3,5,-1,7,-1,-1,-1,9,-1,-1],"loss_changes":[1.2859324E0,2.909042E-1,2.4943829E-2,0E0,2.3697264E-1,0E0,0E0,0E0,1.1603744E-1,0E0,0E0],"parents":[2147483647,0,0,1,1,2,2,4,4,8,8],"right_children":[2,4,6,-1,8,-1,-1,-1,10,-1,-1],"split_conditions":[3.296492E-1,-3.329993E-2,4.322437E-1,-1.2226661E-1,1.24280065E-1,3.020505E-2,1.2610783E-1,-8.4983364E-2,-6.315789E-1,8.764598E-2,-1.3276972E-2],"split_indices":[0,0,0,0,2,0,0,0,1,0,0],"split_type":[0,0,0,0,0,0,0,0,0,0,0],"sum_hessian":[1.2122945E1,7.382351E0,4.740594E0,3.5483854E0,3.8339658E0,1.0733972E0,3.6671968E0,1.1767362E0,2.6572294E0,1.0689018E0,1.5883276E0],"tree_param":{"num_deleted":"0","num_feature":"5","num_nodes":"11","size_leaf_vector":"0"}},{"base_weights":[7.734242E-4,9.223425E-2,-3.5127923E-1,-2.3127441E-1,2.5334546E-1,1.2430651E-1,-3.7502882E-1,3.7081933E-1,-8.811805E-2,-1.4818485E-3,4.5199493E-1],"categories":[],"categories_nodes":[],"categories_segments":[],"categories_sizes":[],"default_left":[1,1,0,1,1,0,0,1,0,0,0],"id":28,"left_children":[1,3,-1,5,7,-1,-1,9,-1,-1,-1],"loss_changes":[4.844817E-1,6.807543E-1,0E0,2.7619112E-1,3.7145978E-1,0E0,0E0,1.9638252E-1,0E0,0E0,0E0],"parents":[2147483647,0,0,1,1,3,3,4,4,7,7],"right_children":[2,4,-1,6,8,-1,-1,10,-1,-1,-1],"split_conditions":[3.878438E-1,-3.1079936E-1,-1.05383776E-1,-5.3392655E-1,5.407135E-1,3.7291955E-2,-1.1250865E-1,-9.2827094E-1,-2.6435414E-2,-4.4455458E-4,1.3559848E-1],"split_indices":[0,0,0,3,2,0,0,3,0,0,0],"split_type":[0,0,0,0,0,0,0,0,0,0,0],"sum_hessian":[1.304023E1,1.0936908E1,2.103322E0,3.49118E0,7.445728E0,1.0440286E0,2.4471512E0,5.475885E0,1.9698429E0,1.1559619E0,4.319923E0],"tree_param":{"num_deleted":"0","num_feature":"5","num_nodes":"11","size_leaf_vector":"0"}},{"base_weights":[-1.7005563E-2,3.6071312E-1,-4.3475297E-1,4.500441E-1,-5.3986173E-2],"categories":[],"categories_nodes":[],"categories_segments":[],"categories_sizes":[],"default_left":[1,1,0,0,0],"id":29,"left_children":[1,3,-1,-1,-1],"loss_changes":[2.0224433E0,2.7456462E-1,0E0,0E0,0E0],"parents":[2147483647,0,0,1,1],"right_children":[2,4,-1,-1,-1],"split_conditions":[-3.1079936E-1,3.4974372E-1,-1.304259E-1,1.3501324E-1,-1.6195852E-2],"split_indices":[0,2,0,0,0],"split_type":[0,0,0,0,0],"sum_hessian":[1.0823375E1,5.7557087E0,5.067666E0,4.665481E0,1.0902277E0],"tree_param":{"num_deleted":"0","num_feature":"5","num_nodes":"5","size_leaf_vector":"0"}},{"base_weights":[1.6323742E-2,-2.1266448E-1,3.5390237E-1,-3.8393334E-1,-2.0649347E-2,9.945411E-2,3.94198E-1,2.2318868E-1,-1.6577053E-1,-2.9575893E-1,3.8838718E-2],"categories":[],"categories_nodes":[],"categories_segments":[],"categories_sizes":[],"default_left":[1,1,1,0,1,0,0,0,1,0,0],"id":30,"left_children":[1,3,5,-1,7,-1,-1,-1,9,-1,-1],"loss_changes":[9.5526E-1,2.3567897E-1,1.1819065E-2,0E0,1.9797328E-1,0E0,0E0,0E0,1.02598116E-1,0E0,0E0],"parents":[2147483647,0,0,1,1,2,2,4,4,8,8],"right_children":[2,4,6,-1,8,-1,-1,-1,10,-1,-1],"split_conditions":[3.296492E-1,-3.329993E-2,4.322437E-1,-1.1518001E-1,-8.947369E-1,2.9836236E-2,1.1825941E-1,6.695661E-2,5.407135E-1,-8.872768E-2,1.1651616E-2],"split_indices":[0,0,0,0,1,0,0,0,2,0,0],"split_type":[0,0,0,0,0,0,0,0,0,0,0],"sum_hessian":[1.038396E1,6.4075704E0,3.9763892E0,2.8584588E0,3.5491118E0,1.017768E0,2.9586213E0,1.1234696E0,2.4256423E0,1.2108846E0,1.2147577E0],"tree_param":{"num_deleted":"0","num_feature":"5","num_nodes":"11","size_leaf_vector":"0"}},{"base_weights":[1.2581801E-3,8.438156E-2,-3.2489198E-1,-1.9868158E-1,2.2329699E-1,1.3359076E-1,-3.5372242E-1,3.4386048E-1,-8.6107515E-2,-3.214302E-4,4.2702213E-1],"categories":[],"categories_nodes":[],"categories_segments":[],"categories_sizes":[],"default_left":[1,1,0,1,1,0,0,1,0,0,0],"id":31,"left_children":[1,3,-1,5,7,-1,-1,9,-1,-1,-1],"loss_changes":[3.6183095E-1,4.6211043E-1,0E0,2.5468275E-1,3.130081E-1,0E0,0E0,1.6234899E-1,0E0,0E0,0E0],"parents":[2147483647,0,0,1,1,3,3,4,4,7,7],"right_children":[2,4,-1,6,8,-1,-1,10,-1,-1,-1],"split_conditions":[3.878438E-1,-3.1079936E-1,-9.74676E-2,-7.974042E-1,5.407135E-1,4.0077228E-2,-1.06116734E-1,-9.2827094E-1,-2.5832256E-2,-9.642907E-5,1.2810664E-1],"split_indices":[0,0,0,0,2,0,0,3,0,0,0],"split_type":[0,0,0,0,0,0,0,0,0,0,0],"sum_hessian":[1.1335203E1,9.623752E0,1.7114513E0,3.0265079E0,6.597244E0,1.0069139E0,2.019594E0,4.6672335E0,1.9300103E0,1.1020994E0,3.565134E0],"tree_param":{"num_deleted":"0","num_feature":"5","num_nodes":"11","size_leaf_vector":"0"}},{"base_weights":[-2.0175215E-2,3.2751292E-1,-4.1555554E-1,-8.0886036E-2,4.3006375E-1],"categories":[],"categories_nodes":[],"categories_segments":[],"categories_sizes":[],"default_left":[1,1,0,0,0],"id":32,"left_children":[1,3,-1,-1,-1],"loss_changes":[1.5080352E0,2.8061014E-1,0E0,0E0,0E0],"parents":[2147483647,0,0,1,1],"right_children":[2,4,-1,-1,-1],"split_conditions":[-3.1079936E-1,-1.1772885E0,-1.2466667E-1,-2.4265813E-2,1.2901913E-1],"split_indices":[0,0,0,0,0],"split_type":[0,0,0,0,0],"sum_hessian":[8.979958E0,4.869492E0,4.1104655E0,1.0197384E0,3.8497534E0],"tree_param":{"num_deleted":"0","num_feature":"5","num_nodes":"5","size_leaf_vector":"0"}},{"base_weights":[1.7802201E-2,-1.9146648E-1,3.313541E-1,-3.606375E-1,-1.4151511E-2,1.2310947E-1,-1.1788476E-1],"categories":[],"categories_nodes":[],"categories_segments":[],"categories_sizes":[],"default_left":[1,1,0,0,1,0,0],"id":33,"left_children":[1,3,-1,-1,5,-1,-1],"loss_changes":[7.201496E-1,1.9395463E-1,0E0,0E0,7.546605E-2,0E0,0E0],"parents":[2147483647,0,0,1,1,4,4],"right_children":[2,4,-1,-1,6,-1,-1],"split_conditions":[3.296492E-1,1.5345976E-1,9.9406235E-2,-1.0819125E-1,-8.947369E-1,3.693284E-2,-3.536543E-2],"split_indices":[0,2,0,0,1,0,0],"split_type":[0,0,0,0,0,0,0],"sum_hessian":[9.008237E0,5.6360354E0,3.3722014E0,2.3551626E0,3.2808726E0,1.3318136E0,1.949059E0],"tree_param":{"num_deleted":"0","num_feature":"5","num_nodes":"7","size_leaf_vector":"0"}},{"base_weights":[1.8354857E-3,7.741131E-2,-2.993518E-1,-1.6883273E-1,1.9674127E-1,1.21637315E-1,-3.266721E-1,-1.1197951E-1,3.2622194E-1,2.2382323E-2,4.0915486E-1],"categories":[],"categories_nodes":[],"categories_segments":[],"categories_sizes":[],"default_left":[1,1,0,1,1,0,0,0,1,0,0],"id":34,"left_children":[1,3,-1,5,7,-1,-1,-1,9,-1,-1],"loss_changes":[2.730513E-1,3.1442806E-1,0E0,2.0763114E-1,3.1267026E-1,0E0,0E0,0E0,1.19918644E-1,0E0,0E0],"parents":[2147483647,0,0,1,1,3,3,4,4,8,8],"right_children":[2,4,-1,6,8,-1,-1,-1,10,-1,-1],"split_conditions":[3.878438E-1,-3.1079936E-1,-8.980554E-2,-8.947369E-1,-5E-1,3.6491197E-2,-9.800164E-2,-3.3593852E-2,-8.947369E-1,6.714697E-3,1.2274646E-1],"split_indices":[0,0,0,1,4,0,0,0,1,0,0],"split_type":[0,0,0,0,0,0,0,0,0,0,0],"sum_hessian":[9.977631E0,8.570137E0,1.4074937E0,2.6620364E0,5.908101E0,1.0179938E0,1.6440426E0,1.7856766E0,4.1224246E0,1.1562352E0,2.9661891E0],"tree_param":{"num_deleted":"0","num_feature":"5","num_nodes":"11","size_leaf_vector":"0"}},{"base_weights":[-2.3241887E-2,2.9595426E-1,-3.960114E-1,-7.3591724E-2,4.0490782E-1],"categories":[],"categories_nodes":[],"categories_segments":[],"categories_sizes":[],"default_left":[1,1,0,0,0],"id":35,"left_children":[1,3,-1,-1,-1],"loss_changes":[1.1324885E0,2.379193E-1,0E0,0E0,0E0],"parents":[2147483647,0,0,1,1],"right_children":[2,4,-1,-1,-1],"split_conditions":[-3.1079936E-1,-1.1772885E0,-1.1880343E-1,-2.2077518E-2,1.2147235E-1],"split_indices":[0,0,0,0,0],"split_type":[0,0,0,0,0],"sum_hessian":[7.532786E0,4.169005E0,3.363781E0,1.023177E0,3.1458278E0],"tree_param":{"num_deleted":"0","num_feature":"5","num_nodes":"5","size_leaf_vector":"0"}},{"base_weights":[1.8126028E-2,-3.4346926E-1,1.71463E-1,2.1958292E-2,3.5122722E-1,2.831007E-1,-1.7139305E-1,7.851661E-2,-3.1687522E-1],"categories":[],"categories_nodes":[],"categories_segments":[],"categories_sizes":[],"default_left":[1,0,1,1,0,0,1,0,0],"id":36,"left_children":[1,-1,3,5,-1,-1,7,-1,-1],"loss_changes":[5.570316E-1,0E0,1.7976967E-1,2.9468066E-1,0E0,0E0,1.4937028E-1,0E0,0E0],"parents":[2147483647,0,0,2,2,3,3,6,6],"right_children":[2,-1,4,6,-1,-1,8,-1,-1],"split_conditions":[-3.329993E-2,-1.03040785E-1,3.878438E-1,-5E-1,1.05368175E-1,8.493021E-2,1.3082397E-1,2.3554984E-2,-9.506257E-2],"split_indices":[0,0,0,4,0,0,0,0,0],"split_type":[0,0,0,0,0,0,0,0,0],"sum_hessian":[7.9842353E0,2.008315E0,5.97592E0,3.8751884E0,2.1007318E0,1.4511168E0,2.4240716E0,1.0612882E0,1.3627832E0],"tree_param":{"num_deleted":"0","num_feature":"5","num_nodes":"9","size_leaf_vector":"0"}},{"base_weights":[1.6648547E-3,7.077863E-2,-2.7592978E-1,-2.396549E-1,1.4710625E-1,2.244628E-2,3.5768357E-1,-9.624338E-2,2.0814188E-1,-3.1054187E-1,1.2719758E-1],"categories":[],"categories_nodes":[],"categories_segments":[],"categories_sizes":[],"default_left":[1,1,0,0,1,1,0,1,0,0,0],"id":37,"left_children":[1,3,-1,-1,5,7,-1,9,-1,-1,-1],"loss_changes":[2.0958097E-1,2.4204028E-1,0E0,0E0,1.9211733E-1,1.4910395E-1,0E0,2.4331407E-1,0E0,0E0,0E0],"parents":[2147483647,0,0,1,1,4,4,5,5,7,7],"right_children":[2,4,-1,-1,6,8,-1,10,-1,-1,-1],"split_conditions":[3.878438E-1,-1.2105262E0,-8.277894E-2,-7.189647E-2,1.3082397E-1,4.3668756E-1,1.0730507E-1,-3.1079936E-1,6.2442567E-2,-9.316257E-2,3.8159274E-2],"split_indices":[0,1,0,0,0,2,0,0,0,0,0],"split_type":[0,0,0,0,0,0,0,0,0,0,0],"sum_hessian":[8.905916E0,7.7270994E0,1.1788162E0,1.1026541E0,6.6244454E0,4.856207E0,1.7682384E0,3.256493E0,1.5997139E0,1.4632746E0,1.7932186E0],"tree_param":{"num_deleted":"0","num_feature":"5","num_nodes":"11","size_leaf_vector":"0"}},{"base_weights":[-2.4033723E-2,2.6987916E-1,-3.7728086E-1,3.8549888E-1,-7.449667E-2],"categories":[],"categories_nodes":[],"categories_segments":[],"categories_sizes":[],"default_left":[1,1,0,0,0],"id":38,"left_children":[1,3,-1,-1,-1],"loss_changes":[8.7655383E-1,2.1410671E-1,0E0,0E0,0E0],"parents":[2147483647,0,0,1,1],"right_children":[2,4,-1,-1,-1],"split_conditions":[-3.1079936E-1,2.5126225E-1,-1.13184266E-1,1.1564967E-1,-2.2349002E-2],"split_indices":[0,2,0,0,0],"split_type":[0,0,0,0,0],"sum_hessian":[6.4619975E0,3.6560512E0,2.8059466E0,2.647705E0,1.008346E0],"tree_param":{"num_deleted":"0","num_feature":"5","num_nodes":"5","size_leaf_vector":"0"}},{"base_weights":[2.2379166E-2,-3.2250354E-1,1.6553523E-1,3.3395674E-2,3.2705316E-1,2.60665E-1,-1.460014E-1,8.411168E-2,-2.9187563E-1],"categories":[],"categories_nodes":[],"categories_segments":[],"categories_sizes":[],"default_left":[1,0,1,1,0,0,1,0,0],"id":39,"left_children":[1,-1,3,5,-1,-1,7,-1,-1],"loss_changes":[4.5023486E-1,0E0,1.24412954E-1,2.256633E-1,0E0,0E0,1.3238654E-1,0E0,0E0],"parents":[2147483647,0,0,2,2,3,3,6,6],"right_children":[2,-1,4,6,-1,-1,8,-1,-1],"split_conditions":[-3.329993E-2,-9.6751064E-2,3.878438E-1,-5E-1,9.811595E-2,7.8199506E-2,-1.0786376E0,2.5233505E-2,-8.7562695E-2],"split_indices":[0,0,0,4,0,0,3,0,0],"split_type":[0,0,0,0,0,0,0,0,0],"sum_hessian":[7.0379324E0,1.6969455E0,5.3409867E0,3.6014025E0,1.7395843E0,1.3888857E0,2.2125168E0,1.022672E0,1.1898447E0],"tree_param":{"num_deleted":"0","num_feature":"5","num_nodes":"9","size_leaf_vector":"0"}},{"base_weights":[1.9330048E-3,-1.8063277E-1,8.7298505E-2,4.1157823E-2,-3.1540778E-1,-9.010223E-2,2.6758066E-1,8.76017E-2,-2.2693785E-1,3.449104E-1,4.7223207E-2],"categories":[],"categories_nodes":[],"categories_segments":[],"categories_sizes":[],"default_left":[1,1,1,0,0,1,1,0,0,0,0],"id":40,"left_children":[1,3,5,-1,-1,7,9,-1,-1,-1,-1],"loss_changes":[1.5541467E-1,1.0805797E-1,2.4093875E-1,0E0,0E0,1.2116316E-1,4.5302927E-2,0E0,0E0,0E0,0E0],"parents":[2147483647,0,0,1,1,2,2,5,5,6,6],"right_children":[2,4,6,-1,-1,8,10,-1,-1,-1,-1],"split_conditions":[-5E-1,5.0788635E-1,1.996025E-1,1.2347347E-2,-9.462234E-2,-1.0678434E-1,6.1176574E-1,2.6280511E-2,-6.808136E-2,1.0347313E-1,1.4166962E-2],"split_indices":[4,2,2,0,0,2,2,0,0,0,0],"split_type":[0,0,0,0,0,0,0,0,0,0,0],"sum_hessian":[7.9603677E0,2.180684E0,5.7796836E0,1.0868095E0,1.0938746E0,3.1652446E0,2.6144392E0,1.5335181E0,1.6317265E0,1.5168883E0,1.097551E0],"tree_param":{"num_deleted":"0","num_feature":"5","num_nodes":"11","size_leaf_vector":"0"}},{"base_weights":[-3.024876E-2,2.4010603E-1,-3.5770947E-1,-6.394294E-2,3.600086E-1],"categories":[],"categories_nodes":[],"categories_segments":[],"categories_sizes":[],"default_left":[1,1,0,0,0],"id":41,"left_children":[1,3,-1,-1,-1],"loss_changes":[6.6305035E-1,1.7502132E-1,0E0,0E0,0E0],"parents":[2147483647,0,0,1,1],"right_children":[2,4,-1,-1,-1],"split_conditions":[-3.1079936E-1,-8.3070415E-1,-1.0731284E-1,-1.9182883E-2,1.0800258E-1],"split_indices":[0,0,0,0,0],"split_type":[0,0,0,0,0],"sum_hessian":[5.5193543E0,3.1694167E0,2.3499377E0,1.0283742E0,2.1410425E0],"tree_param":{"num_deleted":"0","num_feature":"5","num_nodes":"5","size_leaf_vector":"0"}},{"base_weights":[1.627629E-2,-3.0309406E-1,1.4841543E-1,2.2526283E-2,3.071509E-1,2.2683574E-1,-1.3835928E-1,7.099918E-2,-2.7725974E-1],"categories":[],"categories_nodes":[],"categories_segments":[],"categories_sizes":[],"default_left":[1,0,1,1,0,0,1,0,0],"id":42,"left_children":[1,-1,3,5,-1,-1,7,-1,-1],"loss_changes":[3.5196763E-1,0E0,1.0931587E-1,1.7348719E-1,0E0,0E0,1.08079925E-1,0E0,0E0],"parents":[2147483647,0,0,2,2,3,3,6,6],"right_children":[2,-1,4,6,-1,-1,8,-1,-1],"split_conditions":[-3.329993E-2,-9.092822E-2,3.878438E-1,-5E-1,9.214527E-2,6.805073E-2,1.9230758E-1,2.1299755E-2,-8.3177924E-2],"split_indices":[0,0,0,4,0,0,2,0,0],"split_type":[0,0,0,0,0,0,0,0,0],"sum_hessian":[6.2742686E0,1.457603E0,4.8166656E0,3.3231049E0,1.493561E0,1.2833948E0,2.03971E0,1.0084965E0,1.0312134E0],"tree_param":{"num_deleted":"0","num_feature":"5","num_nodes":"9","size_leaf_vector":"0"}},{"base_weights":[3.7540428E-3,-2.2164802E-1,6.570094E-2,-6.584809E-2,2.1624093E-1,-2.0077546E-1,1.2513319E-1,3.8127106E-1,-6.8980746E-2],"categories":[],"categories_nodes":[],"categories_segments":[],"categories_sizes":[],"default_left":[1,0,1,1,1,0,0,0,0],"id":43,"left_children":[1,-1,3,5,7,-1,-1,-1,-1],"loss_changes":[1.3090841E-1,0E0,1.589524E-1,1.4536777E-1,1.9769238E-1,0E0,0E0,0E0,0E0],"parents":[2147483647,0,0,2,2,3,3,4,4],"right_children":[2,-1,4,6,8,-1,-1,-1,-1],"split_conditions":[-1.2105262E0,-6.649441E-2,2.9138434E-1,9.643489E-2,-1.93852E-1,-6.023264E-2,3.753996E-2,1.1438132E-1,-2.0694224E-2],"split_indices":[1,0,2,3,3,0,0,0,0],"split_type":[0,0,0,0,0,0,0,0,0],"sum_hessian":[7.332469E0,1.0249648E0,6.307504E0,3.666302E0,2.6412022E0,2.1183877E0,1.5479143E0,1.4598025E0,1.1813997E0],"tree_param":{"num_deleted":"0","num_feature":"5","num_nodes":"9","size_leaf_vector":"0"}},{"base_weights":[-2.5288684E-2,2.2600228E-1,-3.404895E-1,-5.140232E-2,3.434901E-1],"categories":[],"categories_nodes":[],"categories_segments":[],"categories_sizes":[],"default_left":[1,1,0,0,0],"id":44,"left_children":[1,3,-1,-1,-1],"loss_changes":[5.4576385E-1,1.4457886E-1,0E0,0E0,0E0],"parents":[2147483647,0,0,1,1],"right_children":[2,4,-1,-1,-1],"split_conditions":[-3.1079936E-1,-3.957302E-1,-1.0214686E-1,-1.5420697E-2,1.03047036E-1],"split_indices":[0,3,0,0,0],"split_type":[0,0,0,0,0],"sum_hessian":[4.918817E0,2.8943293E0,2.024488E0,1.0284673E0,1.8658621E0],"tree_param":{"num_deleted":"0","num_feature":"5","num_nodes":"5","size_leaf_vector":"0"}},{"base_weights":[1.2852674E-2,-2.8502172E-1,1.3554838E-1,1.7586948E-2,2.8797805E-1,2.0489465E-1,-1.3134387E-1],"categories":[],"categories_nodes":[],"categories_segments":[],"categories_sizes":[],"default_left":[1,0,1,1,0,0,0],"id":45,"left_children":[1,-1,3,5,-1,-1,-1],"loss_changes":[2.8237617E-1,0E0,9.205312E-2,1.4156085E-1,0E0,0E0,0E0],"parents":[2147483647,0,0,2,2,3,3],"right_children":[2,-1,4,6,-1,-1,-1],"split_conditions":[-3.329993E-2,-8.550652E-2,3.878438E-1,-5E-1,8.6393416E-2,6.1468396E-2,-3.9403163E-2],"split_indices":[0,0,0,4,0,0,0],"split_type":[0,0,0,0,0,0,0],"sum_hessian":[5.669107E0,1.2679197E0,4.4011874E0,3.1098955E0,1.2912918E0,1.2110316E0,1.8988639E0],"tree_param":{"num_deleted":"0","num_feature":"5","num_nodes":"7","size_leaf_vector":"0"}},{"base_weights":[6.40643E-3,8.508552E-2,-1.6100857E-1,-4.9805317E-2,3.2286146E-1,-2.686882E-1,9.2264436E-2,-9.333396E-2,2.4880226E-1],"categories":[],"categories_nodes":[],"categories_segments":[],"categories_sizes":[],"default_left":[1,1,0,1,0,0,1,0,0],"id":46,"left_children":[1,3,-1,5,-1,-1,7,-1,-1],"loss_changes":[1.1605782E-1,2.0662065E-1,0E0,1.6959947E-1,0E0,0E0,1.2689072E-1,0E0,0E0],"parents":[2147483647,0,0,1,1,3,3,6,6],"right_children":[2,4,-1,6,-1,-1,8,-1,-1],"split_conditions":[5.407135E-1,2.9138434E-1,-4.8302572E-2,-3.1079936E-1,9.685844E-2,-8.060646E-2,9.249015E-2,-2.8000189E-2,7.4640684E-2],"split_indices":[2,2,0,0,0,0,3,0,0],"split_type":[0,0,0,0,0,0,0,0,0],"sum_hessian":[6.7708673E0,4.9406886E0,1.8301789E0,3.6567452E0,1.2839433E0,1.0884931E0,2.568252E0,1.3597872E0,1.208465E0],"tree_param":{"num_deleted":"0","num_feature":"5","num_nodes":"9","size_leaf_vector":"0"}},{"base_weights":[-2.5192404E-2,2.0972547E-1,-3.237957E-1,3.215213E-1,-3.8379926E-2],"categories":[],"categories_nodes":[],"categories_segments":[],"categories_sizes":[],"default_left":[1,1,0,0,0],"id":47,"left_children":[1,3,-1,-1,-1],"loss_changes":[4.4520223E-1,1.1267136E-1,0E0,0E0,0E0],"parents":[2147483647,0,0,1,1],"right_children":[2,4,-1,-1,-1],"split_conditions":[-3.1079936E-1,1.9318879E-1,-9.713872E-2,9.64564E-2,-1.1513978E-2],"split_indices":[0,2,0,0,0],"split_type":[0,0,0,0,0],"sum_hessian":[4.3786006E0,2.6172204E0,1.7613804E0,1.6002461E0,1.0169742E0],"tree_param":{"num_deleted":"0","num_feature":"5","num_nodes":"5","size_leaf_vector":"0"}},{"base_weights":[1.2946477E-2,-1.2775084E-1,2.4303329E-1,-2.8987375E-1,3.0343587E-2,-9.989446E-3,5.6666374E-2],"categories":[],"categories_nodes":[],"categories_segments":[],"categories_sizes":[],"default_left":[1,1,0,0,1,0,0],"id":48,"left_children":[1,3,-1,-1,5,-1,-1],"loss_changes":[2.3141086E-1,1.2403571E-1,0E0,0E0,3.943904E-3,0E0,0E0],"parents":[2147483647,0,0,1,1,4,4],"right_children":[2,4,-1,-1,6,-1,-1],"split_conditions":[3.296492E-1,1.5345976E-1,7.290999E-2,-8.6962126E-2,2.3227582E-2,-2.996834E-3,1.6999913E-2],"split_indices":[0,2,0,0,0,0,0],"split_type":[0,0,0,0,0,0,0],"sum_hessian":[5.189282E0,3.496162E0,1.6931201E0,1.3145585E0,2.1816034E0,1.1065685E0,1.075035E0],"tree_param":{"num_deleted":"0","num_feature":"5","num_nodes":"7","size_leaf_vector":"0"}},{"base_weights":[7.7048726E-3,7.439326E-2,-1.7108099E-1,-8.897763E-2,1.5989359E-1,3.0274382E-1,-1.4166746E-2],"categories":[],"categories_nodes":[],"categories_segments":[],"categories_sizes":[],"default_left":[1,1,0,0,1,0,0],"id":49,"left_children":[1,3,-1,-1,5,-1,-1],"loss_changes":[9.9209666E-2,9.775481E-2,0E0,0E0,1.1078304E-1,0E0,0E0],"parents":[2147483647,0,0,1,1,4,4],"right_children":[2,4,-1,-1,6,-1,-1],"split_conditions":[3.296492E-1,-3.1079936E-1,-5.13243E-2,-2.669329E-2,1.5345976E-1,9.082315E-2,-4.250024E-3],"split_indices":[0,0,0,0,2,0,0],"split_type":[0,0,0,0,0,0,0],"sum_hessian":[6.2534437E0,4.97983E0,1.2736142E0,1.6968607E0,3.282969E0,1.3970857E0,1.8858833E0],"tree_param":{"num_deleted":"0","num_feature":"5","num_nodes":"7","size_leaf_vector":"0"}},{"base_weights":[-2.786493E-2,1.914004E-1,-3.0669054E-1,-3.2743882E-2,3.0113214E-1],"categories":[],"categories_nodes":[],"categories_segments":[],"categories_sizes":[],"default_left":[1,1,0,0,0],"id":50,"left_children":[1,3,-1,-1,-1],"loss_changes":[3.5712352E-1,9.2211455E-2,0E0,0E0,0E0],"parents":[2147483647,0,0,1,1],"right_children":[2,4,-1,-1,-1],"split_conditions":[-3.1079936E-1,-7.3865473E-1,-9.200717E-2,-9.823165E-3,9.0339646E-2],"split_indices":[0,0,0,0,0],"split_type":[0,0,0,0,0],"sum_hessian":[3.881232E0,2.3481898E0,1.533042E0,1.0023447E0,1.3458452E0],"tree_param":{"num_deleted":"0","num_feature":"5","num_nodes":"5","size_leaf_vector":"0"}},{"base_weights":[1.0041955E-2,-1.1376528E-1,2.1354467E-1,-2.6930484E-1,2.7186625E-2,-7.496377E-3,4.8989527E-2],"categories":[],"categories_nodes":[],"categories_segments":[],"categories_sizes":[],"default_left":[1,1,0,0,1,0,0],"id":51,"left_children":[1,3,-1,-1,5,-1,-1],"loss_changes":[1.7111662E-1,1.0105772E-1,0E0,0E0,2.7502107E-3,0E0,0E0],"parents":[2147483647,0,0,1,1,4,4],"right_children":[2,4,-1,-1,6,-1,-1],"split_conditions":[3.296492E-1,1.5345976E-1,6.40634E-2,-8.079146E-2,2.3227582E-2,-2.2489133E-3,1.4696859E-2],"split_indices":[0,2,0,0,0,0,0],"split_type":[0,0,0,0,0,0,0],"sum_hessian":[4.8274264E0,3.2755857E0,1.5518407E0,1.1243058E0,2.15128E0,1.0836451E0,1.0676347E0],"tree_param":{"num_deleted":"0","num_feature":"5","num_nodes":"7","size_leaf_vector":"0"}},{"base_weights":[9.686056E-3,-1.492974E-1,8.5668646E-2,-9.093311E-2,2.4156371E-1,6.566438E-2,-1.9634224E-1],"categories":[],"categories_nodes":[],"categories_segments":[],"categories_sizes":[],"default_left":[1,0,1,1,0,0,0],"id":52,"left_children":[1,-1,3,5,-1,-1,-1],"loss_changes":[9.559745E-2,0E0,1.6715546E-1,6.569969E-2,0E0,0E0,0E0],"parents":[2147483647,0,0,2,2,3,3],"right_children":[2,-1,4,6,-1,-1,-1],"split_conditions":[-5E-1,-4.478922E-2,1.996025E-1,-1.0678434E-1,7.2469115E-2,1.9699315E-2,-5.8902677E-2],"split_indices":[4,0,2,2,0,0,0],"split_type":[0,0,0,0,0,0,0],"sum_hessian":[5.8549266E0,1.581325E0,4.2736015E0,2.1991048E0,2.0744967E0,1.0364262E0,1.1626786E0],"tree_param":{"num_deleted":"0","num_feature":"5","num_nodes":"7","size_leaf_vector":"0"}},{"base_weights":[-2.7636267E-2,1.721578E-1,-2.889714E-1,-3.336459E-2,2.8241158E-1],"categories":[],"categories_nodes":[],"categories_segments":[],"categories_sizes":[],"default_left":[1,1,0,0,0],"id":53,"left_children":[1,3,-1,-1,-1],"loss_changes":[2.8575277E-1,8.1667714E-2,0E0,0E0,0E0],"parents":[2147483647,0,0,1,1],"right_children":[2,4,-1,-1,-1],"split_conditions":[-3.1079936E-1,-5.263158E-1,-8.6691424E-2,-1.0009377E-2,8.472347E-2],"split_indices":[0,1,0,0,0],"split_type":[0,0,0,0,0],"sum_hessian":[3.5200076E0,2.1882782E0,1.3317294E0,1.0075337E0,1.1807445E0],"tree_param":{"num_deleted":"0","num_feature":"5","num_nodes":"5","size_leaf_vector":"0"}},{"base_weights":[6.107207E-3,-1.09451964E-1,1.9746518E-1,-2.5763375E-1,2.459947E-2,-8.630501E-3,4.6113987E-2],"categories":[],"categories_nodes":[],"categories_segments":[],"categories_sizes":[],"default_left":[1,1,0,0,1,0,0],"id":54,"left_children":[1,3,-1,-1,5,-1,-1],"loss_changes":[1.4368208E-1,8.748481E-2,0E0,0E0,2.5839992E-3,0E0,0E0],"parents":[2147483647,0,0,1,1,4,4],"right_children":[2,4,-1,-1,6,-1,-1],"split_conditions":[3.296492E-1,1.5345976E-1,5.9239555E-2,-7.7290125E-2,2.3227582E-2,-2.5891503E-3,1.3834196E-2],"split_indices":[0,2,0,0,0,0,0],"split_type":[0,0,0,0,0,0,0],"sum_hessian":[4.5202E0,3.0851398E0,1.43506E0,1.0274662E0,2.0576737E0,1.0440114E0,1.0136623E0],"tree_param":{"num_deleted":"0","num_feature":"5","num_nodes":"7","size_leaf_vector":"0"}},{"base_weights":[9.087557E-3,8.293763E-2,-1.3623112E-1,-6.773317E-2,2.8414083E-1,-1.7601909E-1,9.710227E-2],"categories":[],"categories_nodes":[],"categories_segments":[],"categories_sizes":[],"default_left":[1,1,0,1,0,0,0],"id":55,"left_children":[1,3,-1,5,-1,-1,-1],"loss_changes":[8.166765E-2,1.698893E-1,0E0,8.222272E-2,0E0,0E0,0E0],"parents":[2147483647,0,0,1,1,3,3],"right_children":[2,4,-1,6,-1,-1,-1],"split_conditions":[5.407135E-1,1.996025E-1,-4.086934E-2,9.643489E-2,8.524225E-2,-5.280573E-2,2.9130682E-2],"split_indices":[2,2,0,3,0,0,0],"split_type":[0,0,0,0,0,0,0],"sum_hessian":[5.557054E0,3.9692008E0,1.5878531E0,2.6489198E0,1.3202811E0,1.5577404E0,1.0911793E0],"tree_param":{"num_deleted":"0","num_feature":"5","num_nodes":"7","size_leaf_vector":"0"}},{"base_weights":[-2.1880899E-2,1.6618453E-1,-2.7506796E-1,-2.5639849E-2,2.713722E-1],"categories":[],"categories_nodes":[],"categories_segments":[],"categories_sizes":[],"default_left":[1,1,0,0,0],"id":56,"left_children":[1,3,-1,-1,-1],"loss_changes":[2.4874659E-1,6.890387E-2,0E0,0E0,0E0],"parents":[2147483647,0,0,1,1],"right_children":[2,4,-1,-1,-1],"split_conditions":[-3.1079936E-1,-7.1812934E-1,-8.252039E-2,-7.6919547E-3,8.141166E-2],"split_indices":[0,0,0,0,0],"split_type":[0,0,0,0,0],"sum_hessian":[3.2640226E0,2.0700412E0,1.1939814E0,1.0009378E0,1.0691032E0],"tree_param":{"num_deleted":"0","num_feature":"5","num_nodes":"5","size_leaf_vector":"0"}},{"base_weights":[6.477347E-4,-1.07131876E-1,1.8283002E-1,5.5617183E-2,-1.855195E-1],"categories":[],"categories_nodes":[],"categories_segments":[],"categories_sizes":[],"default_left":[1,1,0,0,0],"id":57,"left_children":[1,3,-1,-1,-1],"loss_changes":[1.2277171E-1,6.04836E-2,0E0,0E0,0E0],"parents":[2147483647,0,0,1,1],"right_children":[2,4,-1,-1,-1],"split_conditions":[3.296492E-1,-7.8947365E-1,5.484901E-2,1.6685156E-2,-5.5655852E-2],"split_indices":[0,1,0,0,0],"split_type":[0,0,0,0,0],"sum_hessian":[4.255002E0,2.932235E0,1.322767E0,1.0476272E0,1.8846077E0],"tree_param":{"num_deleted":"0","num_feature":"5","num_nodes":"5","size_leaf_vector":"0"}},{"base_weights":[1.1114684E-2,-1.3994712E-1,8.326489E-2,-8.900544E-2,2.251714E-1],"categories":[],"categories_nodes":[],"categories_segments":[],"categories_sizes":[],"default_left":[1,0,1,0,0],"id":58,"left_children":[1,-1,3,-1,-1],"loss_changes":[8.010271E-2,0E0,1.3927233E-1,0E0,0E0],"parents":[2147483647,0,0,2,2],"right_children":[2,-1,4,-1,-1],"split_conditions":[-5E-1,-4.1984137E-2,1.996025E-1,-2.6701633E-2,6.755143E-2],"split_indices":[4,0,2,0,0],"split_type":[0,0,0,0,0],"sum_hessian":[5.2803144E0,1.4030555E0,3.8772593E0,1.9196496E0,1.9576095E0],"tree_param":{"num_deleted":"0","num_feature":"5","num_nodes":"5","size_leaf_vector":"0"}},{"base_weights":[-1.8163469E-2,1.5977465E-1,-2.620705E-1],"categories":[],"categories_nodes":[],"categories_segments":[],"categories_sizes":[],"default_left":[1,0,0],"id":59,"left_children":[1,-1,-1],"loss_changes":[2.1680005E-1,0E0,0E0],"parents":[2147483647,0,0],"right_children":[2,-1,-1],"split_conditions":[-3.1079936E-1,4.7932398E-2,-7.862116E-2],"split_indices":[0,0,0],"split_type":[0,0,0],"sum_hessian":[3.0305614E0,1.9516823E0,1.0788792E0],"tree_param":{"num_deleted":"0","num_feature":"5","num_nodes":"3","size_leaf_vector":"0"}},{"base_weights":[9.3856564E-4,-9.926181E-2,1.7059082E-1,3.0155784E-2,-1.9674602E-1],"categories":[],"categories_nodes":[],"categories_segments":[],"categories_sizes":[],"default_left":[1,1,0,0,0],"id":60,"left_children":[1,3,-1,-1,-1],"loss_changes":[1.0273534E-1,5.39426E-2,0E0,0E0,0E0],"parents":[2147483647,0,0,1,1],"right_children":[2,4,-1,-1,-1],"split_conditions":[3.296492E-1,-1.7064762E-1,5.117725E-2,9.046735E-3,-5.902381E-2],"split_indices":[0,3,0,0,0],"split_type":[0,0,0,0,0],"sum_hessian":[4.047419E0,2.8053987E0,1.2420204E0,1.5020176E0,1.3033811E0],"tree_param":{"num_deleted":"0","num_feature":"5","num_nodes":"5","size_leaf_vector":"0"}},{"base_weights":[1.0407652E-2,8.361506E-2,-1.3068925E-1,-5.456332E-2,2.7516827E-1,-1.653702E-1,1.0102976E-1],"categories":[],"categories_nodes":[],"categories_segments":[],"categories_sizes":[],"default_left":[1,1,0,1,0,0,0],"id":61,"left_children":[1,3,-1,5,-1,-1,-1],"loss_changes":[7.364087E-2,1.3695964E-1,0E0,7.7239886E-2,0E0,0E0,0E0],"parents":[2147483647,0,0,1,1,3,3],"right_children":[2,4,-1,6,-1,-1,-1],"split_conditions":[5.407135E-1,2.9138434E-1,-3.9206777E-2,9.643489E-2,8.255048E-2,-4.961106E-2,3.030893E-2],"split_indices":[2,2,0,3,0,0,0],"split_type":[0,0,0,0,0,0,0],"sum_hessian":[5.071375E0,3.6071935E0,1.4641813E0,2.5110102E0,1.0961832E0,1.4298753E0,1.081135E0],"tree_param":{"num_deleted":"0","num_feature":"5","num_nodes":"7","size_leaf_vector":"0"}},{"base_weights":[-1.7624784E-2,1.4527369E-1,-2.355997E-1],"categories":[],"categories_nodes":[],"categories_segments":[],"categories_sizes":[],"default_left":[1,0,0],"id":62,"left_children":[1,-1,-1],"loss_changes":[1.7107774E-1,0E0,0E0],"parents":[2147483647,0,0],"right_children":[2,-1,-1],"split_conditions":[-3.7739924E-1,4.3582108E-2,-7.067991E-2],"split_indices":[0,0,0],"split_type":[0,0,0],"sum_hessian":[2.8541217E0,1.8243022E0,1.0298195E0],"tree_param":{"num_deleted":"0","num_feature":"5","num_nodes":"3","size_leaf_vector":"0"}},{"base_weights":[-3.1722218E-3,-9.623631E-2,1.574824E-1,2.8269455E-2,-1.889178E-1],"categories":[],"categories_nodes":[],"categories_segments":[],"categories_sizes":[],"default_left":[1,1,0,0,0],"id":63,"left_children":[1,3,-1,-1,-1],"loss_changes":[8.766812E-2,4.794041E-2,0E0,0E0,0E0],"parents":[2147483647,0,0,1,1],"right_children":[2,4,-1,-1,-1],"split_conditions":[3.296492E-1,-3.6842105E-1,4.7244724E-2,8.480837E-3,-5.667534E-2],"split_indices":[0,1,0,0,0],"split_type":[0,0,0,0,0],"sum_hessian":[3.849959E0,2.6916895E0,1.1582693E0,1.4452128E0,1.2464767E0],"tree_param":{"num_deleted":"0","num_feature":"5","num_nodes":"5","size_leaf_vector":"0"}},{"base_weights":[1.3194598E-2,-1.3571584E-1,8.445375E-2,-7.772044E-2,2.1181473E-1],"categories":[],"categories_nodes":[],"categories_segments":[],"categories_sizes":[],"default_left":[1,0,1,0,0],"id":64,"left_children":[1,-1,3,-1,-1],"loss_changes":[7.365451E-2,0E0,1.1107087E-1,0E0,0E0],"parents":[2147483647,0,0,2,2],"right_children":[2,-1,4,-1,-1],"split_conditions":[-5E-1,-4.0714756E-2,1.996025E-1,-2.3316134E-2,6.354442E-2],"split_indices":[4,0,2,0,0],"split_type":[0,0,0,0,0],"sum_hessian":[4.861036E0,1.2805429E0,3.5804927E0,1.7464393E0,1.8340535E0],"tree_param":{"num_deleted":"0","num_feature":"5","num_nodes":"5","size_leaf_vector":"0"}},{"base_weights":[-1.6781373E-2,-1.3909008E-1,1.0259394E-1],"categories":[],"categories_nodes":[],"categories_segments":[],"categories_sizes":[],"default_left":[1,0,0],"id":65,"left_children":[1,-1,-1],"loss_changes":[6.8168096E-2,0E0,0E0],"parents":[2147483647,0,0],"right_children":[2,-1,-1],"split_conditions":[-1.4141008E-1,-4.1727025E-2,3.0778185E-2],"split_indices":[3,0,0],"split_type":[0,0,0],"sum_hessian":[2.691502E0,1.2478448E0,1.4436574E0],"tree_param":{"num_deleted":"0","num_feature":"5","num_nodes":"3","size_leaf_vector":"0"}},{"base_weights":[-3.0538011E-3,-9.213897E-2,1.5051769E-1,2.5207182E-2,-1.8040153E-1],"categories":[],"categories_nodes":[],"categories_segments":[],"categories_sizes":[],"default_left":[1,1,0,0,0],"id":66,"left_children":[1,3,-1,-1,-1],"loss_changes":[7.843455E-2,4.190705E-2,0E0,0E0,0E0],"parents":[2147483647,0,0,1,1],"right_children":[2,4,-1,-1,-1],"split_conditions":[3.296492E-1,-1.7064762E-1,4.515531E-2,7.562155E-3,-5.4120462E-2],"split_indices":[0,3,0,0,0],"split_type":[0,0,0,0,0],"sum_hessian":[3.719412E0,2.6070917E0,1.1123204E0,1.4258344E0,1.1812574E0],"tree_param":{"num_deleted":"0","num_feature":"5","num_nodes":"5","size_leaf_vector":"0"}},{"base_weights":[1.0792311E-2,8.4999606E-2,-1.3064188E-1,-4.9286474E-2,2.433507E-1,-1.5280584E-1,7.701296E-2],"categories":[],"categories_nodes":[],"categories_segments":[],"categories_sizes":[],"default_left":[1,1,0,1,0,0,0],"id":67,"left_children":[1,3,-1,5,-1,-1,-1],"loss_changes":[7.13791E-2,1.04971826E-1,0E0,5.3574894E-2,0E0,0E0,0E0],"parents":[2147483647,0,0,1,1,3,3],"right_children":[2,4,-1,6,-1,-1,-1],"split_conditions":[5.407135E-1,1.996025E-1,-3.9192565E-2,-6.135495E-2,7.3005214E-2,-4.5841753E-2,2.310389E-2],"split_indices":[2,2,0,3,0,0,0],"split_type":[0,0,0,0,0,0,0],"sum_hessian":[4.742927E0,3.3724802E0,1.3704469E0,2.1976037E0,1.1748765E0,1.092381E0,1.1052226E0],"tree_param":{"num_deleted":"0","num_feature":"5","num_nodes":"7","size_leaf_vector":"0"}},{"base_weights":[-1.3068425E-2,9.8295376E-2,-1.3043842E-1],"categories":[],"categories_nodes":[],"categories_segments":[],"categories_sizes":[],"default_left":[1,0,0],"id":68,"left_children":[1,-1,-1],"loss_changes":[6.039879E-2,0E0,0E0],"parents":[2147483647,0,0],"right_children":[2,-1,-1],"split_conditions":[-4.106992E-1,2.9488614E-2,-3.9131526E-2],"split_indices":[0,0,0],"split_type":[0,0,0],"sum_hessian":[2.6399772E0,1.4380417E0,1.2019356E0],"tree_param":{"num_deleted":"0","num_feature":"5","num_nodes":"3","size_leaf_vector":"0"}},{"base_weights":[-5.8261533E-3,-9.026842E-2,1.4196058E-1,2.616781E-2,-1.7655647E-1],"categories":[],"categories_nodes":[],"categories_segments":[],"categories_sizes":[],"default_left":[1,1,0,0,0],"id":69,"left_children":[1,3,-1,-1,-1],"loss_changes":[6.988725E-2,4.0002726E-2,0E0,0E0,0E0],"parents":[2147483647,0,0,1,1],"right_children":[2,4,-1,-1,-1],"split_conditions":[3.296492E-1,-3.6842105E-1,4.2588174E-2,7.850343E-3,-5.296694E-2],"split_indices":[0,1,0,0,0],"split_type":[0,0,0,0,0],"sum_hessian":[3.573336E0,2.5216916E0,1.0516442E0,1.3699005E0,1.1517911E0],"tree_param":{"num_deleted":"0","num_feature":"5","num_nodes":"5","size_leaf_vector":"0"}},{"base_weights":[1.0858764E-2,8.163577E-2,-1.2219693E-1,-4.8316564E-2,2.3226953E-1,-1.4069551E-1,6.743129E-2],"categories":[],"categories_nodes":[],"categories_segments":[],"categories_sizes":[],"default_left":[1,1,0,1,0,0,0],"id":70,"left_children":[1,3,-1,5,-1,-1,-1],"loss_changes":[6.2690794E-2,9.4485685E-2,0E0,4.2755492E-2,0E0,0E0,0E0],"parents":[2147483647,0,0,1,1,3,3],"right_children":[2,4,-1,6,-1,-1,-1],"split_conditions":[5.407135E-1,1.996025E-1,-3.665908E-2,-6.135495E-2,6.968086E-2,-4.2208657E-2,2.0229388E-2],"split_indices":[2,2,0,3,0,0,0],"split_type":[0,0,0,0,0,0,0],"sum_hessian":[4.5977025E0,3.2535033E0,1.3441991E0,2.1113112E0,1.142192E0,1.0543193E0,1.056992E0],"tree_param":{"num_deleted":"0","num_feature":"5","num_nodes":"7","size_leaf_vector":"0"}},{"base_weights":[-9.607933E-3,9.518514E-2,-1.2123146E-1],"categories":[],"categories_nodes":[],"categories_segments":[],"categories_sizes":[],"default_left":[1,0,0],"id":71,"left_children":[1,-1,-1],"loss_changes":[5.3101946E-2,0E0,0E0],"parents":[2147483647,0,0],"right_children":[2,-1,-1],"split_conditions":[-4.106992E-1,2.8555542E-2,-3.636944E-2],"split_indices":[0,0,0],"split_type":[0,0,0],"sum_hessian":[2.5531492E0,1.3928225E0,1.1603267E0],"tree_param":{"num_deleted":"0","num_feature":"5","num_nodes":"3","size_leaf_vector":"0"}},{"base_weights":[-8.09673E-3,1.3217032E-1,-9.223254E-2,3.5071936E-2,-1.823302E-1],"categories":[],"categories_nodes":[],"categories_segments":[],"categories_sizes":[],"default_left":[1,0,1,0,0],"id":72,"left_children":[1,-1,3,-1,-1],"loss_changes":[6.460846E-2,0E0,4.4994347E-2,0E0,0E0],"parents":[2147483647,0,0,2,2],"right_children":[2,-1,4,-1,-1],"split_conditions":[-5E-1,3.9651096E-2,1.819705E-1,1.0521581E-2,-5.4699063E-2],"split_indices":[4,0,2,0,0],"split_type":[0,0,0,0,0],"sum_hessian":[3.4416506E0,1.0763302E0,2.3653204E0,1.2333623E0,1.1319582E0],"tree_param":{"num_deleted":"0","num_feature":"5","num_nodes":"5","size_leaf_vector":"0"}},{"base_weights":[1.0435598E-2,7.927267E-2,-1.1790809E-1,-4.6674807E-2,2.2248282E-1,-1.3203596E-1,6.1295208E-2],"categories":[],"categories_nodes":[],"categories_segments":[],"categories_sizes":[],"default_left":[1,1,0,1,0,0,0],"id":73,"left_children":[1,3,-1,5,-1,-1,-1],"loss_changes":[5.7623304E-2,8.532207E-2,0E0,3.6084983E-2,0E0,0E0,0E0],"parents":[2147483647,0,0,1,1,3,3],"right_children":[2,4,-1,6,-1,-1,-1],"split_conditions":[5.407135E-1,1.996025E-1,-3.537243E-2,-6.135495E-2,6.674485E-2,-3.961079E-2,1.8388564E-2],"split_indices":[2,2,0,3,0,0,0],"split_type":[0,0,0,0,0,0,0],"sum_hessian":[4.4643455E0,3.1546767E0,1.3096685E0,2.0371597E0,1.117517E0,1.0132159E0,1.0239438E0],"tree_param":{"num_deleted":"0","num_feature":"5","num_nodes":"7","size_leaf_vector":"0"}},{"base_weights":[-6.0545215E-3,-1.1220365E-1,9.6476145E-2],"categories":[],"categories_nodes":[],"categories_segments":[],"categories_sizes":[],"default_left":[1,0,0],"id":74,"left_children":[1,-1,-1],"loss_changes":[4.8685607E-2,0E0,0E0],"parents":[2147483647,0,0],"right_children":[2,-1,-1],"split_conditions":[-1.4141008E-1,-3.3661097E-2,2.8942844E-2],"split_indices":[3,0,0],"split_type":[0,0,0],"sum_hessian":[2.4787052E0,1.1715093E0,1.3071959E0],"tree_param":{"num_deleted":"0","num_feature":"5","num_nodes":"3","size_leaf_vector":"0"}},{"base_weights":[-9.624611E-3,-1.2390411E-1,8.705102E-2],"categories":[],"categories_nodes":[],"categories_segments":[],"categories_sizes":[],"default_left":[1,0,0],"id":75,"left_children":[1,-1,-1],"loss_changes":[5.875481E-2,0E0,0E0],"parents":[2147483647,0,0],"right_children":[2,-1,-1],"split_conditions":[4.542754E-2,-3.7171233E-2,2.6115308E-2],"split_indices":[0,0,0],"split_type":[0,0,0],"sum_hessian":[3.341839E0,1.4024116E0,1.9394276E0],"tree_param":{"num_deleted":"0","num_feature":"5","num_nodes":"3","size_leaf_vector":"0"}},{"base_weights":[9.448014E-3,7.4572474E-2,-1.11756876E-1,-3.844249E-2,2.0342824E-1],"categories":[],"categories_nodes":[],"categories_segments":[],"categories_sizes":[],"default_left":[1,1,0,0,0],"id":76,"left_children":[1,3,-1,-1,-1],"loss_changes":[5.0579194E-2,6.725279E-2,0E0,0E0,0E0],"parents":[2147483647,0,0,1,1],"right_children":[2,4,-1,-1,-1],"split_conditions":[5.407135E-1,1.996025E-1,-3.3527065E-2,-1.1532747E-2,6.1028473E-2],"split_indices":[2,2,0,0,0],"split_type":[0,0,0,0,0],"sum_hessian":[4.351964E0,3.0811663E0,1.2707975E0,2.0152886E0,1.0658778E0],"tree_param":{"num_deleted":"0","num_feature":"5","num_nodes":"5","size_leaf_vector":"0"}},{"base_weights":[-2.5494238E-3,9.904309E-2,-1.1269604E-1],"categories":[],"categories_nodes":[],"categories_segments":[],"categories_sizes":[],"default_left":[1,0,0],"id":77,"left_children":[1,-1,-1],"loss_changes":[4.9681805E-2,0E0,0E0],"parents":[2147483647,0,0],"right_children":[2,-1,-1],"split_conditions":[-4.106992E-1,2.9712928E-2,-3.3808812E-2],"split_indices":[0,0,0],"split_type":[0,0,0],"sum_hessian":[2.442341E0,1.3229444E0,1.1193966E0],"tree_param":{"num_deleted":"0","num_feature":"5","num_nodes":"3","size_leaf_vector":"0"}},{"base_weights":[-1.2213386E-2,-1.1602107E-1,7.6807365E-2],"categories":[],"categories_nodes":[],"categories_segments":[],"categories_sizes":[],"default_left":[1,0,0],"id":78,"left_children":[1,-1,-1],"loss_changes":[4.831688E-2,0E0,0E0],"parents":[2147483647,0,0],"right_children":[2,-1,-1],"split_conditions":[4.542754E-2,-3.4806322E-2,2.304221E-2],"split_indices":[0,0,0],"split_type":[0,0,0],"sum_hessian":[3.2641973E0,1.3669196E0,1.8972778E0],"tree_param":{"num_deleted":"0","num_feature":"5","num_nodes":"3","size_leaf_vector":"0"}},{"base_weights":[1.0995878E-2,-1.1309453E-1,6.920152E-2,-5.5520564E-2,1.6313894E-1],"categories":[],"categories_nodes":[],"categories_segments":[],"categories_sizes":[],"default_left":[1,0,1,0,0],"id":79,"left_children":[1,-1,3,-1,-1],"loss_changes":[4.5958284E-2,0E0,5.8430627E-2,0E0,0E0],"parents":[2147483647,0,0,2,2],"right_children":[2,-1,4,-1,-1],"split_conditions":[-5E-1,-3.392836E-2,1.996025E-1,-1.665617E-2,4.8941683E-2],"split_indices":[4,0,2,0,0],"split_type":[0,0,0,0,0],"sum_hessian":[4.2794166E0,1.0652854E0,3.214131E0,1.5565025E0,1.6576288E0],"tree_param":{"num_deleted":"0","num_feature":"5","num_nodes":"5","size_leaf_vector":"0"}},{"base_weights":[-1.7682002E-3,9.549167E-2,-1.0710611E-1],"categories":[],"categories_nodes":[],"categories_segments":[],"categories_sizes":[],"default_left":[1,0,0],"id":80,"left_children":[1,-1,-1],"loss_changes":[4.4825815E-2,0E0,0E0],"parents":[2147483647,0,0],"right_children":[2,-1,-1],"split_conditions":[-4.106992E-1,2.8647503E-2,-3.2131836E-2],"split_indices":[0,0,0],"split_type":[0,0,0],"sum_hessian":[2.3770192E0,1.2844981E0,1.092521E0],"tree_param":{"num_deleted":"0","num_feature":"5","num_nodes":"3","size_leaf_vector":"0"}},{"base_weights":[-1.2578366E-2,-1.3210656E-1,6.67062E-2,1.1068708E-1,-1.2032117E-2],"categories":[],"categories_nodes":[],"categories_segments":[],"categories_sizes":[],"default_left":[1,0,1,0,0],"id":81,"left_children":[1,-1,3,-1,-1],"loss_changes":[4.849782E-2,0E0,1.2351513E-2,0E0,0E0],"parents":[2147483647,0,0,2,2],"right_children":[2,-1,4,-1,-1],"split_conditions":[1.4623442E-1,-3.963197E-2,-5.263158E-1,3.3206124E-2,-3.6096352E-3],"split_indices":[2,0,1,0,0],"split_type":[0,0,0,0,0],"sum_hessian":[3.1876729E0,1.0055254E0,2.1821475E0,1.1397555E0,1.0423921E0],"tree_param":{"num_deleted":"0","num_feature":"5","num_nodes":"5","size_leaf_vector":"0"}},{"base_weights":[1.0299438E-2,7.42357E-2,-1.08222894E-1,-3.0437773E-2,1.8951283E-1],"categories":[],"categories_nodes":[],"categories_segments":[],"categories_sizes":[],"default_left":[1,1,0,0,0],"id":82,"left_children":[1,3,-1,-1,-1],"loss_changes":[4.7539517E-2,5.3788003E-2,0E0,0E0,0E0],"parents":[2147483647,0,0,1,1],"right_children":[2,4,-1,-1,-1],"split_conditions":[5.407135E-1,1.996025E-1,-3.246687E-2,-9.131332E-3,5.6853853E-2],"split_indices":[2,2,0,0,0],"split_type":[0,0,0,0,0],"sum_hessian":[4.213271E0,2.9795985E0,1.2336726E0,1.9473416E0,1.032257E0],"tree_param":{"num_deleted":"0","num_feature":"5","num_nodes":"5","size_leaf_vector":"0"}},{"base_weights":[-3.0642506E-4,9.0333946E-2,-9.807862E-2],"categories":[],"categories_nodes":[],"categories_segments":[],"categories_sizes":[],"default_left":[1,0,0],"id":83,"left_children":[1,-1,-1],"loss_changes":[3.8313918E-2,0E0,0E0],"parents":[2147483647,0,0],"right_children":[2,-1,-1],"split_conditions":[-4.106992E-1,2.7100185E-2,-2.9423589E-2],"split_indices":[0,0,0],"split_type":[0,0,0],"sum_hessian":[2.3235986E0,1.2452545E0,1.0783441E0],"tree_param":{"num_deleted":"0","num_feature":"5","num_nodes":"3","size_leaf_vector":"0"}},{"base_weights":[-1.4407839E-2,-1.09716065E-1,6.8789296E-2],"categories":[],"categories_nodes":[],"categories_segments":[],"categories_sizes":[],"default_left":[1,0,0],"id":84,"left_children":[1,-1,-1],"loss_changes":[4.021889E-2,0E0,0E0],"parents":[2147483647,0,0],"right_children":[2,-1,-1],"split_conditions":[4.542754E-2,-3.291482E-2,2.063679E-2],"split_indices":[0,0,0],"split_type":[0,0,0],"sum_hessian":[3.1203268E0,1.3057497E0,1.814577E0],"tree_param":{"num_deleted":"0","num_feature":"5","num_nodes":"3","size_leaf_vector":"0"}},{"base_weights":[1.070329E-2,7.070334E-2,-1.0023791E-1,-3.0842906E-2,1.81903E-1],"categories":[],"categories_nodes":[],"categories_segments":[],"categories_sizes":[],"default_left":[1,1,0,0,0],"id":85,"left_children":[1,3,-1,-1,-1],"loss_changes":[4.1277803E-2,4.9874153E-2,0E0,0E0,0E0],"parents":[2147483647,0,0,1,1],"right_children":[2,4,-1,-1,-1],"split_conditions":[5.407135E-1,1.996025E-1,-3.0071376E-2,-9.252872E-3,5.4570902E-2],"split_indices":[2,2,0,0,0],"split_type":[0,0,0,0,0],"sum_hessian":[4.136447E0,2.9199522E0,1.2164949E0,1.9039353E0,1.0160168E0],"tree_param":{"num_deleted":"0","num_feature":"5","num_nodes":"5","size_leaf_vector":"0"}},{"base_weights":[1.3379804E-3,8.86728E-2,-9.3229525E-2],"categories":[],"categories_nodes":[],"categories_segments":[],"categories_sizes":[],"default_left":[1,0,0],"id":86,"left_children":[1,-1,-1],"loss_changes":[3.534832E-2,0E0,0E0],"parents":[2147483647,0,0],"right_children":[2,-1,-1],"split_conditions":[-4.106992E-1,2.6601842E-2,-2.796886E-2],"split_indices":[0,0,0],"split_type":[0,0,0],"sum_hessian":[2.2790017E0,1.2172148E0,1.0617869E0],"tree_param":{"num_deleted":"0","num_feature":"5","num_nodes":"3","size_leaf_vector":"0"}},{"base_weights":[-1.6169537E-2,5.566814E-2,-1.1425024E-1],"categories":[],"categories_nodes":[],"categories_segments":[],"categories_sizes":[],"default_left":[1,0,0],"id":87,"left_children":[1,-1,-1],"loss_changes":[3.4982737E-2,0E0,0E0],"parents":[2147483647,0,0],"right_children":[2,-1,-1],"split_conditions":[-2.631579E-1,1.6700443E-2,-3.4275074E-2],"split_indices":[1,0,0],"split_type":[0,0,0],"sum_hessian":[3.0623174E0,2.0172439E0,1.0450736E0],"tree_param":{"num_deleted":"0","num_feature":"5","num_nodes":"3","size_leaf_vector":"0"}},{"base_weights":[1.1577077E-2,6.814009E-2,-9.301819E-2,-2.6867062E-2,1.6949233E-1],"categories":[],"categories_nodes":[],"categories_segments":[],"categories_sizes":[],"default_left":[1,1,0,0,0],"id":88,"left_children":[1,3,-1,-1,-1],"loss_changes":[3.640054E-2,4.186763E-2,0E0,0E0,0E0],"parents":[2147483647,0,0,1,1],"right_children":[2,4,-1,-1,-1],"split_conditions":[5.407135E-1,1.9531839E-1,-2.7905459E-2,-8.060119E-3,5.08477E-2],"split_indices":[2,2,0,0,0],"split_type":[0,0,0,0,0],"sum_hessian":[4.0813284E0,2.8750792E0,1.2062494E0,1.8633226E0,1.0117564E0],"tree_param":{"num_deleted":"0","num_feature":"5","num_nodes":"5","size_leaf_vector":"0"}},{"base_weights":[2.1238904E-3,-8.826606E-2,8.793192E-2],"categories":[],"categories_nodes":[],"categories_segments":[],"categories_sizes":[],"default_left":[1,0,0],"id":89,"left_children":[1,-1,-1],"loss_changes":[3.281279E-2,0E0,0E0],"parents":[2147483647,0,0],"right_children":[2,-1,-1],"split_conditions":[-1.4141008E-1,-2.647982E-2,2.6379578E-2],"split_indices":[3,0,0],"split_type":[0,0,0],"sum_hessian":[2.2298596E0,1.0719863E0,1.1578732E0],"tree_param":{"num_deleted":"0","num_feature":"5","num_nodes":"3","size_leaf_vector":"0"}},{"base_weights":[-1.7557759E-2,-8.5466035E-2,8.709119E-2],"categories":[],"categories_nodes":[],"categories_segments":[],"categories_sizes":[],"default_left":[1,0,0],"id":90,"left_children":[1,-1,-1],"loss_changes":[3.6043014E-2,0E0,0E0],"parents":[2147483647,0,0],"right_children":[2,-1,-1],"split_conditions":[2.7749944E-1,-2.5639812E-2,2.6127359E-2],"split_indices":[0,0,0],"split_type":[0,0,0],"sum_hessian":[3.0244226E0,1.945358E0,1.0790646E0],"tree_param":{"num_deleted":"0","num_feature":"5","num_nodes":"3","size_leaf_vector":"0"}},{"base_weights":[1.1598832E-2,-8.762009E-2,6.570624E-2,1.7664255E-1,-3.8717672E-2],"categories":[],"categories_nodes":[],"categories_segments":[],"categories_sizes":[],"default_left":[1,0,1,0,0],"id":91,"left_children":[1,-1,3,-1,-1],"loss_changes":[3.2768074E-2,0E0,5.1176406E-2,0E0,0E0],"parents":[2147483647,0,0,2,2],"right_children":[2,-1,4,-1,-1],"split_conditions":[-3.1079936E-1,-2.6286026E-2,1.4623442E-1,5.299277E-2,-1.1615302E-2],"split_indices":[0,0,2,0,0],"split_type":[0,0,0,0,0],"sum_hessian":[4.0313864E0,1.2040669E0,2.8273191E0,1.0355722E0,1.791747E0],"tree_param":{"num_deleted":"0","num_feature":"5","num_nodes":"5","size_leaf_vector":"0"}},{"base_weights":[3.833053E-3,9.081686E-2,-8.987774E-2],"categories":[],"categories_nodes":[],"categories_segments":[],"categories_sizes":[],"default_left":[1,0,0],"id":92,"left_children":[1,-1,-1],"loss_changes":[3.432319E-2,0E0,0E0],"parents":[2147483647,0,0],"right_children":[2,-1,-1],"split_conditions":[-4.106992E-1,2.724506E-2,-2.6963323E-2],"split_indices":[0,0,0],"split_type":[0,0,0],"sum_hessian":[2.2093909E0,1.1618371E0,1.0475537E0],"tree_param":{"num_deleted":"0","num_feature":"5","num_nodes":"3","size_leaf_vector":"0"}},{"base_weights":[-1.3467981E-2,-7.626241E-2,8.110646E-2],"categories":[],"categories_nodes":[],"categories_segments":[],"categories_sizes":[],"default_left":[1,0,0],"id":93,"left_children":[1,-1,-1],"loss_changes":[2.9763063E-2,0E0,0E0],"parents":[2147483647,0,0],"right_children":[2,-1,-1],"split_conditions":[2.7749944E-1,-2.2878723E-2,2.433194E-2],"split_indices":[0,0,0],"split_type":[0,0,0],"sum_hessian":[2.9701447E0,1.9013406E0,1.0688041E0],"tree_param":{"num_deleted":"0","num_feature":"5","num_nodes":"3","size_leaf_vector":"0"}},{"base_weights":[1.0803504E-2,6.404622E-2,-8.643005E-2,-3.1709243E-2,1.6444327E-1],"categories":[],"categories_nodes":[],"categories_segments":[],"categories_sizes":[],"default_left":[1,1,0,0,0],"id":94,"left_children":[1,3,-1,-1,-1],"loss_changes":[3.118128E-2,4.150933E-2,0E0,0E0,0E0],"parents":[2147483647,0,0,1,1],"right_children":[2,4,-1,-1,-1],"split_conditions":[5.407135E-1,1.9318879E-1,-2.5929017E-2,-9.512773E-3,4.9332984E-2],"split_indices":[2,2,0,0,0],"split_type":[0,0,0,0,0],"sum_hessian":[3.953809E0,2.7753894E0,1.1784197E0,1.7707075E0,1.004682E0],"tree_param":{"num_deleted":"0","num_feature":"5","num_nodes":"5","size_leaf_vector":"0"}},{"base_weights":[-1.5242514E-5,-8.2588844E-2,8.0643475E-2],"categories":[],"categories_nodes":[],"categories_segments":[],"categories_sizes":[],"default_left":[1,0,0],"id":95,"left_children":[1,-1,-1],"loss_changes":[2.7598353E-2,0E0,0E0],"parents":[2147483647,0,0],"right_children":[2,-1,-1],"split_conditions":[-1.4141008E-1,-2.4776654E-2,2.4193043E-2],"split_indices":[3,0,0],"split_type":[0,0,0],"sum_hessian":[2.1437266E0,1.0474647E0,1.0962617E0],"tree_param":{"num_deleted":"0","num_feature":"5","num_nodes":"3","size_leaf_vector":"0"}},{"base_weights":[-1.2908873E-2,-7.248504E-2,7.7499345E-2],"categories":[],"categories_nodes":[],"categories_segments":[],"categories_sizes":[],"default_left":[1,0,0],"id":96,"left_children":[1,-1,-1],"loss_changes":[2.6783207E-2,0E0,0E0],"parents":[2147483647,0,0],"right_children":[2,-1,-1],"split_conditions":[2.7749944E-1,-2.1745512E-2,2.3249805E-2],"split_indices":[0,0,0],"split_type":[0,0,0],"sum_hessian":[2.9296286E0,1.8854343E0,1.0441945E0],"tree_param":{"num_deleted":"0","num_feature":"5","num_nodes":"3","size_leaf_vector":"0"}},{"base_weights":[9.450101E-3,-8.30667E-2,6.0383517E-2,-3.1595472E-2,1.5570407E-1],"categories":[],"categories_nodes":[],"categories_segments":[],"categories_sizes":[],"default_left":[1,0,1,0,0],"id":97,"left_children":[1,-1,3,-1,-1],"loss_changes":[2.8162837E-2,0E0,3.7772194E-2,0E0,0E0],"parents":[2147483647,0,0,2,2],"right_children":[2,-1,4,-1,-1],"split_conditions":[-3.1079936E-1,-2.4920011E-2,-2.631579E-1,-9.478642E-3,4.671122E-2],"split_indices":[0,0,1,0,0],"split_type":[0,0,0,0,0],"sum_hessian":[3.912141E0,1.1650413E0,2.7470999E0,1.7382858E0,1.008814E0],"tree_param":{"num_deleted":"0","num_feature":"5","num_nodes":"5","size_leaf_vector":"0"}},{"base_weights":[1.3805646E-3,8.182802E-2,-8.344186E-2],"categories":[],"categories_nodes":[],"categories_segments":[],"categories_sizes":[],"default_left":[1,0,0],"id":98,"left_children":[1,-1,-1],"loss_changes":[2.8116297E-2,0E0,0E0],"parents":[2147483647,0,0],"right_children":[2,-1,-1],"split_conditions":[-4.106992E-1,2.4548408E-2,-2.503256E-2],"split_indices":[0,0,0],"split_type":[0,0,0],"sum_hessian":[2.1197534E0,1.1060517E0,1.0137017E0],"tree_param":{"num_deleted":"0","num_feature":"5","num_nodes":"3","size_leaf_vector":"0"}},{"base_weights":[-8.955107E-3,-8.466921E-2,5.50796E-2],"categories":[],"categories_nodes":[],"categories_segments":[],"categories_sizes":[],"default_left":[1,0,0],"id":99,"left_children":[1,-1,-1],"loss_changes":[2.35087E-2,0E0,0E0],"parents":[2147483647,0,0],"right_children":[2,-1,-1],"split_conditions":[4.542754E-2,-2.5400763E-2,1.652388E-2],"split_indices":[0,0,0],"split_type":[0,0,0],"sum_hessian":[2.8869364E0,1.1751772E0,1.7117591E0],"tree_param":{"num_deleted":"0","num_feature":"5","num_nodes":"3","size_leaf_vector":"0"}},{"base_weights":[8.825314E-3,6.187024E-2,-8.680441E-2,-3.0932177E-2,1.5603817E-1],"categories":[],"categories_nodes":[],"categories_segments":[],"categories_sizes":[],"default_left":[1,1,0,0,0],"id":100,"left_children":[1,3,-1,-1,-1],"loss_changes":[2.9980808E-2,3.719964E-2,0E0,0E0,0E0],"parents":[2147483647,0,0,1,1],"right_children":[2,4,-1,-1,-1],"split_conditions":[5.407135E-1,1.819705E-1,-2.6041325E-2,-9.279653E-3,4.681145E-2],"split_indices":[2,2,0,0,0],"split_type":[0,0,0,0,0],"sum_hessian":[3.851526E0,2.704428E0,1.1470982E0,1.7003024E0,1.0041255E0],"tree_param":{"num_deleted":"0","num_feature":"5","num_nodes":"5","size_leaf_vector":"0"}},{"base_weights":[-2.6114506E-3,-7.804779E-2,7.334906E-2],"categories":[],"categories_nodes":[],"categories_segments":[],"categories_sizes":[],"default_left":[1,0,0],"id":101,"left_children":[1,-1,-1],"loss_changes":[2.3298077E-2,0E0,0E0],"parents":[2147483647,0,0],"right_children":[2,-1,-1],"split_conditions":[-1.4141008E-1,-2.3414338E-2,2.2004718E-2],"split_indices":[3,0,0],"split_type":[0,0,0],"sum_hessian":[2.0668035E0,1.0231929E0,1.0436107E0],"tree_param":{"num_deleted":"0","num_feature":"5","num_nodes":"3","size_leaf_vector":"0"}},{"base_weights":[-1.0537592E-2,-6.4693525E-2,7.077031E-2],"categories":[],"categories_nodes":[],"categories_segments":[],"categories_sizes":[],"default_left":[1,0,0],"id":102,"left_children":[1,-1,-1],"loss_changes":[2.1547358E-2,0E0,0E0],"parents":[2147483647,0,0],"right_children":[2,-1,-1],"split_conditions":[2.7749944E-1,-1.9408058E-2,2.1231093E-2],"split_indices":[0,0,0],"split_type":[0,0,0],"sum_hessian":[2.8536909E0,1.8354862E0,1.0182047E0],"tree_param":{"num_deleted":"0","num_feature":"5","num_nodes":"3","size_leaf_vector":"0"}},{"base_weights":[9.068213E-3,5.8689293E-2,-8.0366306E-2,1.0659671E-1,-2.2970395E-2],"categories":[],"categories_nodes":[],"categories_segments":[],"categories_sizes":[],"default_left":[1,1,0,0,0],"id":103,"left_children":[1,3,-1,-1,-1],"loss_changes":[2.6101712E-2,1.6834117E-2,0E0,0E0,0E0],"parents":[2147483647,0,0,1,1],"right_children":[2,4,-1,-1,-1],"split_conditions":[5.407135E-1,-3.6842105E-1,-2.4109893E-2,3.1979013E-2,-6.891119E-3],"split_indices":[2,1,0,0,0],"split_type":[0,0,0,0,0],"sum_hessian":[3.8188045E0,2.6771894E0,1.1416152E0,1.4948349E0,1.1823545E0],"tree_param":{"num_deleted":"0","num_feature":"5","num_nodes":"5","size_leaf_vector":"0"}},{"base_weights":[-1.014235E-3,6.951226E-2,-7.19839E-2],"categories":[],"categories_nodes":[],"categories_segments":[],"categories_sizes":[],"default_left":[1,0,0],"id":104,"left_children":[1,-1,-1],"loss_changes":[2.0246726E-2,0E0,0E0],"parents":[2147483647,0,0],"right_children":[2,-1,-1],"split_conditions":[-4.6257263E-1,2.085368E-2,-2.1595173E-2],"split_indices":[0,0,0],"split_type":[0,0,0],"sum_hessian":[2.0453994E0,1.0362028E0,1.0091966E0],"tree_param":{"num_deleted":"0","num_feature":"5","num_nodes":"3","size_leaf_vector":"0"}},{"base_weights":[-8.713891E-3,5.7523992E-2,-7.757672E-2],"categories":[],"categories_nodes":[],"categories_segments":[],"categories_sizes":[],"default_left":[1,0,0],"id":105,"left_children":[1,-1,-1],"loss_changes":[2.1907963E-2,0E0,0E0],"parents":[2147483647,0,0],"right_children":[2,-1,-1],"split_conditions":[-3.6842105E-1,1.7257199E-2,-2.3273017E-2],"split_indices":[1,0,0],"split_type":[0,0,0],"sum_hessian":[2.824641E0,1.52369E0,1.300951E0],"tree_param":{"num_deleted":"0","num_feature":"5","num_nodes":"3","size_leaf_vector":"0"}},{"base_weights":[7.119611E-3,-7.911771E-2,5.5095922E-2,-4.2528514E-2,1.2984434E-1],"categories":[],"categories_nodes":[],"categories_segments":[],"categories_sizes":[],"default_left":[1,0,1,0,0],"id":106,"left_children":[1,-1,3,-1,-1],"loss_changes":[2.4162361E-2,0E0,3.226643E-2,0E0,0E0],"parents":[2147483647,0,0,2,2],"right_children":[2,-1,4,-1,-1],"split_conditions":[-3.1079936E-1,-2.3735313E-2,-3.6842105E-1,-1.2758555E-2,3.8953304E-2],"split_indices":[0,0,1,0,0],"split_type":[0,0,0,0,0],"sum_hessian":[3.7864704E0,1.1214918E0,2.6649787E0,1.3425713E0,1.3224074E0],"tree_param":{"num_deleted":"0","num_feature":"5","num_nodes":"5","size_leaf_vector":"0"}},{"base_weights":[-2.4913403E-4,6.483827E-2,-6.5410554E-2],"categories":[],"categories_nodes":[],"categories_segments":[],"categories_sizes":[],"default_left":[1,0,0],"id":107,"left_children":[1,-1,-1],"loss_changes":[1.7017905E-2,0E0,0E0],"parents":[2147483647,0,0],"right_children":[2,-1,-1],"split_conditions":[-4.8477262E-1,1.945148E-2,-1.9623168E-2],"split_indices":[0,0,0],"split_type":[0,0,0],"sum_hessian":[2.012552E0,1.0093288E0,1.0032231E0],"tree_param":{"num_deleted":"0","num_feature":"5","num_nodes":"3","size_leaf_vector":"0"}},{"base_weights":[-5.4680323E-3,-5.631744E-2,6.642966E-2],"categories":[],"categories_nodes":[],"categories_segments":[],"categories_sizes":[],"default_left":[1,0,0],"id":108,"left_children":[1,-1,-1],"loss_changes":[1.7619433E-2,0E0,0E0],"parents":[2147483647,0,0],"right_children":[2,-1,-1],"split_conditions":[5.407135E-1,-1.6895233E-2,1.9928899E-2],"split_indices":[2,0,0],"split_type":[0,0,0],"sum_hessian":[2.7960763E0,1.7646991E0,1.0313773E0],"tree_param":{"num_deleted":"0","num_feature":"5","num_nodes":"3","size_leaf_vector":"0"}},{"base_weights":[6.4354637E-3,5.7427656E-2,-8.4256135E-2,1.067165E-1,-2.7338168E-2],"categories":[],"categories_nodes":[],"categories_segments":[],"categories_sizes":[],"default_left":[1,1,0,0,0],"id":109,"left_children":[1,3,-1,-1,-1],"loss_changes":[2.6736291E-2,1.8065196E-2,0E0,0E0,0E0],"parents":[2147483647,0,0,1,1],"right_children":[2,4,-1,-1,-1],"split_conditions":[5.407135E-1,-3.6842105E-1,-2.5276842E-2,3.201495E-2,-8.201451E-3],"split_indices":[2,1,0,0,0],"split_type":[0,0,0,0,0],"sum_hessian":[3.735076E0,2.625593E0,1.109483E0,1.4964781E0,1.1291147E0],"tree_param":{"num_deleted":"0","num_feature":"5","num_nodes":"5","size_leaf_vector":"0"}},{"base_weights":[-3.2639944E-3],"categories":[],"categories_nodes":[],"categories_segments":[],"categories_sizes":[],"default_left":[0],"id":110,"left_children":[-1],"loss_changes":[0E0],"parents":[2147483647],"right_children":[-1],"split_conditions":[-9.791984E-4],"split_indices":[0],"split_type":[0],"sum_hessian":[1.9768064E0],"tree_param":{"num_deleted":"0","num_feature":"5","num_nodes":"1","size_leaf_vector":"0"}},{"base_weights":[-3.9534634E-3,5.4944634E-2,-6.664339E-2],"categories":[],"categories_nodes":[],"categories_segments":[],"categories_sizes":[],"default_left":[1,0,0],"id":111,"left_children":[1,-1,-1],"loss_changes":[1.7617999E-2,0E0,0E0],"parents":[2147483647,0,0],"right_children":[2,-1,-1],"split_conditions":[-3.6842105E-1,1.648339E-2,-1.9993016E-2],"split_indices":[1,0,0],"split_type":[0,0,0],"sum_hessian":[2.779822E0,1.4969578E0,1.2828645E0],"tree_param":{"num_deleted":"0","num_feature":"5","num_nodes":"3","size_leaf_vector":"0"}},{"base_weights":[4.4870274E-3,4.884517E-2,-7.39659E-2,9.4377704E-2,-2.7364017E-2],"categories":[],"categories_nodes":[],"categories_segments":[],"categories_sizes":[],"default_left":[1,1,0,0,0],"id":112,"left_children":[1,3,-1,-1,-1],"loss_changes":[2.0012854E-2,1.5118718E-2,0E0,0E0,0E0],"parents":[2147483647,0,0,1,1],"right_children":[2,4,-1,-1,-1],"split_conditions":[5.407135E-1,-3.6842105E-1,-2.218977E-2,2.8313313E-2,-8.209205E-3],"split_indices":[2,1,0,0,0],"split_type":[0,0,0,0,0],"sum_hessian":[3.712602E0,2.6127307E0,1.0998713E0,1.4863069E0,1.1264238E0],"tree_param":{"num_deleted":"0","num_feature":"5","num_nodes":"5","size_leaf_vector":"0"}},{"base_weights":[-2.091561E-3],"categories":[],"categories_nodes":[],"categories_segments":[],"categories_sizes":[],"default_left":[0],"id":113,"left_children":[-1],"loss_changes":[0E0],"parents":[2147483647],"right_children":[-1],"split_conditions":[-6.2746834E-4],"split_indices":[0],"split_type":[0],"sum_hessian":[1.9652236E0],"tree_param":{"num_deleted":"0","num_feature":"5","num_nodes":"1","size_leaf_vector":"0"}},{"base_weights":[-3.562147E-3,5.390814E-2,-6.462093E-2],"categories":[],"categories_nodes":[],"categories_segments":[],"categories_sizes":[],"default_left":[1,0,0],"id":114,"left_children":[1,-1,-1],"loss_changes":[1.6701635E-2,0E0,0E0],"parents":[2147483647,0,0],"right_children":[2,-1,-1],"split_conditions":[-3.6842105E-1,1.6172443E-2,-1.9386278E-2],"split_indices":[1,0,0],"split_type":[0,0,0],"sum_hessian":[2.7668264E0,1.4856246E0,1.2812018E0],"tree_param":{"num_deleted":"0","num_feature":"5","num_nodes":"3","size_leaf_vector":"0"}},{"base_weights":[3.4163801E-3,-7.4940614E-2,4.8010115E-2,-4.3030288E-2,1.1814076E-1],"categories":[],"categories_nodes":[],"categories_segments":[],"categories_sizes":[],"default_left":[1,0,1,0,0],"id":115,"left_children":[1,-1,3,-1,-1],"loss_changes":[1.9991174E-2,0E0,2.8065082E-2,0E0,0E0],"parents":[2147483647,0,0,2,2],"right_children":[2,-1,4,-1,-1],"split_conditions":[-3.1079936E-1,-2.2482185E-2,-3.6842105E-1,-1.2909087E-2,3.544223E-2],"split_indices":[0,0,1,0,0],"split_type":[0,0,0,0,0],"sum_hessian":[3.6915238E0,1.0920794E0,2.5994444E0,1.2992474E0,1.300197E0],"tree_param":{"num_deleted":"0","num_feature":"5","num_nodes":"5","size_leaf_vector":"0"}},{"base_weights":[-8.826643E-4],"categories":[],"categories_nodes":[],"categories_segments":[],"categories_sizes":[],"default_left":[0],"id":116,"left_children":[-1],"loss_changes":[0E0],"parents":[2147483647],"right_children":[-1],"split_conditions":[-2.647993E-4],"split_indices":[0],"split_type":[0],"sum_hessian":[1.9568957E0],"tree_param":{"num_deleted":"0","num_feature":"5","num_nodes":"1","size_leaf_vector":"0"}},{"base_weights":[-7.436341E-4,-6.4351134E-2,5.0899576E-2],"categories":[],"categories_nodes":[],"categories_segments":[],"categories_sizes":[],"default_left":[1,0,0],"id":117,"left_children":[1,-1,-1],"loss_changes":[1.55917015E-2,0E0,0E0],"parents":[2147483647,0,0],"right_children":[2,-1,-1],"split_conditions":[4.542754E-2,-1.9305341E-2,1.5269874E-2],"split_indices":[0,0,0],"split_type":[0,0,0],"sum_hessian":[2.74936E0,1.1217098E0,1.6276501E0],"tree_param":{"num_deleted":"0","num_feature":"5","num_nodes":"3","size_leaf_vector":"0"}},{"base_weights":[2.8567784E-3,4.700577E-2,-7.518082E-2,9.652776E-2,-3.391113E-2],"categories":[],"categories_nodes":[],"categories_segments":[],"categories_sizes":[],"default_left":[1,1,0,0,0],"id":118,"left_children":[1,3,-1,-1,-1],"loss_changes":[1.95719E-2,1.7652538E-2,0E0,0E0,0E0],"parents":[2147483647,0,0,1,1],"right_children":[2,4,-1,-1,-1],"split_conditions":[5.407135E-1,-3.6842105E-1,-2.2554247E-2,2.895833E-2,-1.0173339E-2],"split_indices":[2,1,0,0,0],"split_type":[0,0,0,0,0],"sum_hessian":[3.6550536E0,2.5883644E0,1.066689E0,1.485995E0,1.1023694E0],"tree_param":{"num_deleted":"0","num_feature":"5","num_nodes":"5","size_leaf_vector":"0"}},{"base_weights":[-3.5763893E-3],"categories":[],"categories_nodes":[],"categories_segments":[],"categories_sizes":[],"default_left":[0],"id":119,"left_children":[-1],"loss_changes":[0E0],"parents":[2147483647],"right_children":[-1],"split_conditions":[-1.0729168E-3],"split_indices":[0],"split_type":[0],"sum_hessian":[1.9388323E0],"tree_param":{"num_deleted":"0","num_feature":"5","num_nodes":"1","size_leaf_vector":"0"}},{"base_weights":[-9.426128E-4,-5.907115E-2,4.640341E-2],"categories":[],"categories_nodes":[],"categories_segments":[],"categories_sizes":[],"default_left":[1,0,0],"id":120,"left_children":[1,-1,-1],"loss_changes":[1.3017016E-2,0E0,0E0],"parents":[2147483647,0,0],"right_children":[2,-1,-1],"split_conditions":[4.542754E-2,-1.7721346E-2,1.3921024E-2],"split_indices":[0,0,0],"split_type":[0,0,0],"sum_hessian":[2.7337694E0,1.1159846E0,1.6177847E0],"tree_param":{"num_deleted":"0","num_feature":"5","num_nodes":"3","size_leaf_vector":"0"}},{"base_weights":[2.5577333E-3,5.905911E-2,-5.4651406E-2],"categories":[],"categories_nodes":[],"categories_segments":[],"categories_sizes":[],"default_left":[1,0,0],"id":121,"left_children":[1,-1,-1],"loss_changes":[1.8223263E-2,0E0,0E0],"parents":[2147483647,0,0],"right_children":[2,-1,-1],"split_conditions":[-1.93852E-1,1.7717734E-2,-1.6395422E-2],"split_indices":[3,0,0],"split_type":[0,0,0],"sum_hessian":[3.6391609E0,1.814637E0,1.824524E0],"tree_param":{"num_deleted":"0","num_feature":"5","num_nodes":"3","size_leaf_vector":"0"}},{"base_weights":[-2.8546622E-3],"categories":[],"categories_nodes":[],"categories_segments":[],"categories_sizes":[],"default_left":[0],"id":122,"left_children":[-1],"loss_changes":[0E0],"parents":[2147483647],"right_children":[-1],"split_conditions":[-8.563987E-4],"split_indices":[0],"split_type":[0],"sum_hessian":[1.9239646E0],"tree_param":{"num_deleted":"0","num_feature":"5","num_nodes":"1","size_leaf_vector":"0"}},{"base_weights":[-1.1907864E-3,4.923825E-2,-5.5618767E-2],"categories":[],"categories_nodes":[],"categories_segments":[],"categories_sizes":[],"default_left":[1,0,0],"id":123,"left_children":[1,-1,-1],"loss_changes":[1.2955687E-2,0E0,0E0],"parents":[2147483647,0,0],"right_children":[2,-1,-1],"split_conditions":[-3.6842105E-1,1.4771475E-2,-1.6685631E-2],"split_indices":[1,0,0],"split_type":[0,0,0],"sum_hessian":[2.722421E0,1.4626166E0,1.2598045E0],"tree_param":{"num_deleted":"0","num_feature":"5","num_nodes":"3","size_leaf_vector":"0"}},{"base_weights":[2.7961915E-3,-7.295965E-2,4.5944072E-2,-3.8079593E-2,1.0990146E-1],"categories":[],"categories_nodes":[],"categories_segments":[],"categories_sizes":[],"default_left":[1,0,1,0,0],"id":124,"left_children":[1,-1,3,-1,-1],"loss_changes":[1.8487826E-2,0E0,2.3336567E-2,0E0,0E0],"parents":[2147483647,0,0,2,2],"right_children":[2,-1,4,-1,-1],"split_conditions":[-3.1079936E-1,-2.1887895E-2,-3.6842105E-1,-1.1423878E-2,3.297044E-2],"split_indices":[0,0,1,0,0],"split_type":[0,0,0,0,0],"sum_hessian":[3.630509E0,1.0667201E0,2.5637887E0,1.2829413E0,1.2808473E0],"tree_param":{"num_deleted":"0","num_feature":"5","num_nodes":"5","size_leaf_vector":"0"}},{"base_weights":[-2.9233028E-3],"categories":[],"categories_nodes":[],"categories_segments":[],"categories_sizes":[],"default_left":[0],"id":125,"left_children":[-1],"loss_changes":[0E0],"parents":[2147483647],"right_children":[-1],"split_conditions":[-8.769909E-4],"split_indices":[0],"split_type":[0],"sum_hessian":[1.913091E0],"tree_param":{"num_deleted":"0","num_feature":"5","num_nodes":"1","size_leaf_vector":"0"}},{"base_weights":[1.3070981E-3,-5.2307956E-2,4.4234976E-2],"categories":[],"categories_nodes":[],"categories_segments":[],"categories_sizes":[],"default_left":[1,0,0],"id":126,"left_children":[1,-1,-1],"loss_changes":[1.08495215E-2,0E0,0E0],"parents":[2147483647,0,0],"right_children":[2,-1,-1],"split_conditions":[4.542754E-2,-1.5692387E-2,1.3270494E-2],"split_indices":[0,0,0],"split_type":[0,0,0],"sum_hessian":[2.7086167E0,1.1072285E0,1.6013882E0],"tree_param":{"num_deleted":"0","num_feature":"5","num_nodes":"3","size_leaf_vector":"0"}},{"base_weights":[2.3005211E-3,-5.5605065E-2,5.828574E-2],"categories":[],"categories_nodes":[],"categories_segments":[],"categories_sizes":[],"default_left":[1,0,0],"id":127,"left_children":[1,-1,-1],"loss_changes":[1.8150065E-2,0E0,0E0],"parents":[2147483647,0,0],"right_children":[2,-1,-1],"split_conditions":[2.9138434E-1,-1.668152E-2,1.7485723E-2],"split_indices":[2,0,0],"split_type":[0,0,0],"sum_hessian":[3.598933E0,1.7724627E0,1.8264704E0],"tree_param":{"num_deleted":"0","num_feature":"5","num_nodes":"3","size_leaf_vector":"0"}},{"base_weights":[-5.326596E-3],"categories":[],"categories_nodes":[],"categories_segments":[],"categories_sizes":[],"default_left":[0],"id":128,"left_children":[-1],"loss_changes":[0E0],"parents":[2147483647],"right_children":[-1],"split_conditions":[-1.5979789E-3],"split_indices":[0],"split_type":[0],"sum_hessian":[1.8964227E0],"tree_param":{"num_deleted":"0","num_feature":"5","num_nodes":"1","size_leaf_vector":"0"}},{"base_weights":[9.835039E-4,-4.870473E-2,4.0876605E-2],"categories":[],"categories_nodes":[],"categories_segments":[],"categories_sizes":[],"default_left":[1,0,0],"id":129,"left_children":[1,-1,-1],"loss_changes":[9.322198E-3,0E0,0E0],"parents":[2147483647,0,0],"right_children":[2,-1,-1],"split_conditions":[4.542754E-2,-1.4611419E-2,1.2262982E-2],"split_indices":[0,0,0],"split_type":[0,0,0],"sum_hessian":[2.6985414E0,1.1033722E0,1.5951691E0],"tree_param":{"num_deleted":"0","num_feature":"5","num_nodes":"3","size_leaf_vector":"0"}},{"base_weights":[2.4849859E-3,4.7536198E-2,-7.704597E-2,9.406068E-2,-3.120468E-2],"categories":[],"categories_nodes":[],"categories_segments":[],"categories_sizes":[],"default_left":[1,1,0,0,0],"id":130,"left_children":[1,3,-1,-1,-1],"loss_changes":[2.0116067E-2,1.59401E-2,0E0,0E0,0E0],"parents":[2147483647,0,0,1,1],"right_children":[2,4,-1,-1,-1],"split_conditions":[5.407135E-1,-3.6842105E-1,-2.311379E-2,2.8218206E-2,-9.361404E-3],"split_indices":[2,1,0,0,0],"split_type":[0,0,0,0,0],"sum_hessian":[3.592171E0,2.549992E0,1.0421789E0,1.4806074E0,1.0693848E0],"tree_param":{"num_deleted":"0","num_feature":"5","num_nodes":"5","size_leaf_vector":"0"}},{"base_weights":[-5.2120592E-3],"categories":[],"categories_nodes":[],"categories_segments":[],"categories_sizes":[],"default_left":[0],"id":131,"left_children":[-1],"loss_changes":[0E0],"parents":[2147483647],"right_children":[-1],"split_conditions":[-1.5636178E-3],"split_indices":[0],"split_type":[0],"sum_hessian":[1.8874367E0],"tree_param":{"num_deleted":"0","num_feature":"5","num_nodes":"1","size_leaf_vector":"0"}},{"base_weights":[7.3206483E-4,5.5295628E-2,-4.0322438E-2],"categories":[],"categories_nodes":[],"categories_segments":[],"categories_sizes":[],"default_left":[1,0,0],"id":132,"left_children":[1,-1,-1],"loss_changes":[1.0487399E-2,0E0,0E0],"parents":[2147483647,0,0],"right_children":[2,-1,-1],"split_conditions":[-8.947369E-1,1.658869E-2,-1.2096732E-2],"split_indices":[1,0,0],"split_type":[0,0,0],"sum_hessian":[2.686361E0,1.0044765E0,1.6818846E0],"tree_param":{"num_deleted":"0","num_feature":"5","num_nodes":"3","size_leaf_vector":"0"}},{"base_weights":[2.036805E-3,-4.3963052E-2,7.168259E-2,-1.134848E-1,5.5426385E-2],"categories":[],"categories_nodes":[],"categories_segments":[],"categories_sizes":[],"default_left":[1,1,0,0,0],"id":133,"left_children":[1,3,-1,-1,-1],"loss_changes":[1.7817646E-2,2.9623006E-2,0E0,0E0,0E0],"parents":[2147483647,0,0,1,1],"right_children":[2,4,-1,-1,-1],"split_conditions":[1.3082397E-1,4.3668756E-1,2.1504777E-2,-3.4045443E-2,1.6627917E-2],"split_indices":[0,2,0,0,0],"split_type":[0,0,0,0,0],"sum_hessian":[3.5779192E0,2.3768272E0,1.201092E0,1.3151063E0,1.061721E0],"tree_param":{"num_deleted":"0","num_feature":"5","num_nodes":"5","size_leaf_vector":"0"}},{"base_weights":[-4.1824696E-3],"categories":[],"categories_nodes":[],"categories_segments":[],"categories_sizes":[],"default_left":[0],"id":134,"left_children":[-1],"loss_changes":[0E0],"parents":[2147483647],"right_children":[-1],"split_conditions":[-1.2547409E-3],"split_indices":[0],"split_type":[0],"sum_hessian":[1.8746233E0],"tree_param":{"num_deleted":"0","num_feature":"5","num_nodes":"1","size_leaf_vector":"0"}},{"base_weights":[2.6983146E-3,-4.671866E-2,4.188253E-2],"categories":[],"categories_nodes":[],"categories_segments":[],"categories_sizes":[],"default_left":[1,0,0],"id":135,"left_children":[1,-1,-1],"loss_changes":[9.079201E-3,0E0,0E0],"parents":[2147483647,0,0],"right_children":[2,-1,-1],"split_conditions":[4.542754E-2,-1.4015599E-2,1.256476E-2],"split_indices":[0,0,0],"split_type":[0,0,0],"sum_hessian":[2.6782856E0,1.0994443E0,1.5788413E0],"tree_param":{"num_deleted":"0","num_feature":"5","num_nodes":"3","size_leaf_vector":"0"}},{"base_weights":[1.5681636E-3,4.6585787E-2,-7.681997E-2,8.912759E-2,-2.6595045E-2],"categories":[],"categories_nodes":[],"categories_segments":[],"categories_sizes":[],"default_left":[1,1,0,0,0],"id":136,"left_children":[1,3,-1,-1,-1],"loss_changes":[1.9647356E-2,1.331315E-2,0E0,0E0,0E0],"parents":[2147483647,0,0,1,1],"right_children":[2,4,-1,-1,-1],"split_conditions":[5.407135E-1,-3.6842105E-1,-2.3045992E-2,2.6738279E-2,-7.978514E-3],"split_indices":[2,1,0,0,0],"split_type":[0,0,0,0,0],"sum_hessian":[3.5535085E0,2.5149171E0,1.0385914E0,1.4525851E0,1.0623322E0],"tree_param":{"num_deleted":"0","num_feature":"5","num_nodes":"5","size_leaf_vector":"0"}},{"base_weights":[-5.9682196E-3],"categories":[],"categories_nodes":[],"categories_segments":[],"categories_sizes":[],"default_left":[0],"id":137,"left_children":[-1],"loss_changes":[0E0],"parents":[2147483647],"right_children":[-1],"split_conditions":[-1.7904659E-3],"split_indices":[0],"split_type":[0],"sum_hessian":[1.8592795E0],"tree_param":{"num_deleted":"0","num_feature":"5","num_nodes":"1","size_leaf_vector":"0"}},{"base_weights":[2.168449E-3,4.5406345E-2,-4.5318484E-2],"categories":[],"categories_nodes":[],"categories_segments":[],